<?xml version="1.0"?>
<opencv_storage>
<cascade>
  <stageType>BOOST</stageType>
  <featureType>HAAR</featureType>
  <height>24</height>
  <width>24</width>
  <stageParams>
    <boostType>GAB</boostType>
    <minHitRate>9.9500000476837158e-01</minHitRate>
    <maxFalseAlarm>2.0000000298023224e-01</maxFalseAlarm>
    <weightTrimRate>9.4999999999999996e-01</weightTrimRate>
    <maxDepth>1</maxDepth>
    <maxWeakCount>100</maxWeakCount></stageParams>
  <featureParams>
    <maxCatCount>0</maxCatCount>
    <featSize>1</featSize>
    <mode>BASIC</mode></featureParams>
  <stageNum>9</stageNum>
  <stages>
    <!-- stage 0 -->
    <_>
      <maxWeakCount>36</maxWeakCount>
      <stageThreshold>-1.7326507568359375e+00</stageThreshold>
      <weakClassifiers>
        <_>
          <internalNodes>
            0 -1 88 -1.8500003218650818e-01</internalNodes>
          <leafValues>
            -2.3508137091994286e-02 -8.5274785757064819e-01</leafValues></_>
        <_>
          <internalNodes>
            0 -1 246 -1.2188037857413292e-02</internalNodes>
          <leafValues>
            2.3832325637340546e-01 -6.2099277973175049e-01</leafValues></_>
        <_>
          <internalNodes>
            0 -1 101 -4.8091597855091095e-02</internalNodes>
          <leafValues>
            3.4201598167419434e-01 -3.2743072509765625e-01</leafValues></_>
        <_>
          <internalNodes>
            0 -1 342 4.1609443724155426e-03</internalNodes>
          <leafValues>
            -2.5104928016662598e-01 2.9894471168518066e-01</leafValues></_>
        <_>
          <internalNodes>
            0 -1 266 2.3874035105109215e-03</internalNodes>
          <leafValues>
            -1.7148640751838684e-01 3.6706241965293884e-01</leafValues></_>
        <_>
          <internalNodes>
            0 -1 332 -3.3397432416677475e-03</internalNodes>
          <leafValues>
            4.2068424820899963e-01 -1.2309253960847855e-01</leafValues></_>
        <_>
          <internalNodes>
            0 -1 86 -3.0793152749538422e-02</internalNodes>
          <leafValues>
            2.8212681412696838e-01 -1.9999216496944427e-01</leafValues></_>
        <_>
          <internalNodes>
            0 -1 428 1.6835246235132217e-02</internalNodes>
          <leafValues>
            -9.8594821989536285e-02 4.8043057322502136e-01</leafValues></_>
        <_>
          <internalNodes>
            0 -1 369 -1.0847330093383789e-02</internalNodes>
          <leafValues>
            3.8949629664421082e-01 -1.4679642021656036e-01</leafValues></_>
        <_>
          <internalNodes>
            0 -1 219 2.5703029241412878e-03</internalNodes>
          <leafValues>
            -1.6493578255176544e-01 3.2259011268615723e-01</leafValues></_>
        <_>
          <internalNodes>
            0 -1 198 -4.6912056859582663e-04</internalNodes>
          <leafValues>
            2.9700240492820740e-01 -1.7880620062351227e-01</leafValues></_>
        <_>
          <internalNodes>
            0 -1 28 8.5878772661089897e-03</internalNodes>
          <leafValues>
            -9.0807646512985229e-02 4.9682608246803284e-01</leafValues></_>
        <_>
          <internalNodes>
            0 -1 169 -8.3544543012976646e-03</internalNodes>
          <leafValues>
            3.0948099493980408e-01 -1.8792694807052612e-01</leafValues></_>
        <_>
          <internalNodes>
            0 -1 1 -1.2399612460285425e-03</internalNodes>
          <leafValues>
            -3.6476403474807739e-01 1.2664064764976501e-01</leafValues></_>
        <_>
          <internalNodes>
            0 -1 352 -5.6384028866887093e-03</internalNodes>
          <leafValues>
            2.0521141588687897e-01 -2.2157695889472961e-01</leafValues></_>
        <_>
          <internalNodes>
            0 -1 163 -2.9706917703151703e-02</internalNodes>
          <leafValues>
            4.3840536475181580e-01 -9.5490902662277222e-02</leafValues></_>
        <_>
          <internalNodes>
            0 -1 494 -2.7648354880511761e-03</internalNodes>
          <leafValues>
            -3.3265578746795654e-01 1.3491858541965485e-01</leafValues></_>
        <_>
          <internalNodes>
            0 -1 309 -4.1831284761428833e-03</internalNodes>
          <leafValues>
            3.4706458449363708e-01 -1.3385896384716034e-01</leafValues></_>
        <_>
          <internalNodes>
            0 -1 226 -7.1050709811970592e-04</internalNodes>
          <leafValues>
            2.0667110383510590e-01 -2.7101519703865051e-01</leafValues></_>
        <_>
          <internalNodes>
            0 -1 451 2.1372399351093918e-04</internalNodes>
          <leafValues>
            1.4162464439868927e-01 -2.9998153448104858e-01</leafValues></_>
        <_>
          <internalNodes>
            0 -1 12 -1.1140733957290649e-02</internalNodes>
          <leafValues>
            2.5511747598648071e-01 -1.6522477567195892e-01</leafValues></_>
        <_>
          <internalNodes>
            0 -1 343 9.6389907412230968e-04</internalNodes>
          <leafValues>
            -1.3435435295104980e-01 3.1631469726562500e-01</leafValues></_>
        <_>
          <internalNodes>
            0 -1 26 -1.8200166523456573e-01</internalNodes>
          <leafValues>
            -6.5720361471176147e-01 6.6253930330276489e-02</leafValues></_>
        <_>
          <internalNodes>
            0 -1 249 2.7936321496963501e-01</internalNodes>
          <leafValues>
            6.2529295682907104e-02 -5.3610789775848389e-01</leafValues></_>
        <_>
          <internalNodes>
            0 -1 41 -9.9157063232269138e-05</internalNodes>
          <leafValues>
            1.5569341182708740e-01 -2.5477629899978638e-01</leafValues></_>
        <_>
          <internalNodes>
            0 -1 91 2.5065344572067261e-01</internalNodes>
          <leafValues>
            -7.1375168859958649e-02 5.6238794326782227e-01</leafValues></_>
        <_>
          <internalNodes>
            0 -1 384 -3.7190463626757264e-04</internalNodes>
          <leafValues>
            3.3681651949882507e-01 -1.1754318326711655e-01</leafValues></_>
        <_>
          <internalNodes>
            0 -1 459 1.7897440120577812e-02</internalNodes>
          <leafValues>
            -1.4978238940238953e-01 2.4883937835693359e-01</leafValues></_>
        <_>
          <internalNodes>
            0 -1 357 -1.8173763528466225e-02</internalNodes>
          <leafValues>
            3.2810261845588684e-01 -1.0373930633068085e-01</leafValues></_>
        <_>
          <internalNodes>
            0 -1 203 -3.5507306456565857e-02</internalNodes>
          <leafValues>
            -8.0220472812652588e-01 4.4674370437860489e-02</leafValues></_>
        <_>
          <internalNodes>
            0 -1 96 1.2115552090108395e-02</internalNodes>
          <leafValues>
            -1.5235084295272827e-01 2.2271478176116943e-01</leafValues></_>
        <_>
          <internalNodes>
            0 -1 186 -6.9265559315681458e-02</internalNodes>
          <leafValues>
            -7.5784379243850708e-01 5.0747960805892944e-02</leafValues></_>
        <_>
          <internalNodes>
            0 -1 325 -6.5176759380847216e-04</internalNodes>
          <leafValues>
            1.7749451100826263e-01 -1.8364542722702026e-01</leafValues></_>
        <_>
          <internalNodes>
            0 -1 370 -3.9199665188789368e-03</internalNodes>
          <leafValues>
            2.3464013636112213e-01 -1.5877062082290649e-01</leafValues></_>
        <_>
          <internalNodes>
            0 -1 321 8.4289647638797760e-03</internalNodes>
          <leafValues>
            -1.2981818616390228e-01 3.4408473968505859e-01</leafValues></_>
        <_>
          <internalNodes>
            0 -1 112 -1.0353868128731847e-03</internalNodes>
          <leafValues>
            1.8827340006828308e-01 -1.9659633934497833e-01</leafValues></_></weakClassifiers></_>
    <!-- stage 1 -->
    <_>
      <maxWeakCount>42</maxWeakCount>
      <stageThreshold>-1.5133093595504761e+00</stageThreshold>
      <weakClassifiers>
        <_>
          <internalNodes>
            0 -1 16 -2.9285144805908203e-01</internalNodes>
          <leafValues>
            -2.4565756320953369e-01 -8.6140847206115723e-01</leafValues></_>
        <_>
          <internalNodes>
            0 -1 246 -2.0095985382795334e-02</internalNodes>
          <leafValues>
            9.5914810895919800e-02 -5.1951330900192261e-01</leafValues></_>
        <_>
          <internalNodes>
            0 -1 31 -1.9309118390083313e-02</internalNodes>
          <leafValues>
            3.2207950949668884e-01 -2.4968335032463074e-01</leafValues></_>
        <_>
          <internalNodes>
            0 -1 230 -3.0012104616616853e-05</internalNodes>
          <leafValues>
            2.2311204671859741e-01 -2.6760631799697876e-01</leafValues></_>
        <_>
          <internalNodes>
            0 -1 79 5.7191745145246387e-04</internalNodes>
          <leafValues>
            7.1146547794342041e-02 -8.1109440326690674e-01</leafValues></_>
        <_>
          <internalNodes>
            0 -1 223 -1.2075273320078850e-02</internalNodes>
          <leafValues>
            -8.6717116832733154e-01 6.0647435486316681e-02</leafValues></_>
        <_>
          <internalNodes>
            0 -1 423 4.2086996138095856e-02</internalNodes>
          <leafValues>
            -1.6675391793251038e-01 3.1033664941787720e-01</leafValues></_>
        <_>
          <internalNodes>
            0 -1 301 -9.5877112471498549e-05</internalNodes>
          <leafValues>
            1.7487034201622009e-01 -3.0217185616493225e-01</leafValues></_>
        <_>
          <internalNodes>
            0 -1 73 -4.8301334027200937e-04</internalNodes>
          <leafValues>
            -4.5830598473548889e-01 1.2582363188266754e-01</leafValues></_>
        <_>
          <internalNodes>
            0 -1 320 -8.2381125539541245e-03</internalNodes>
          <leafValues>
            3.5716331005096436e-01 -1.4803543686866760e-01</leafValues></_>
        <_>
          <internalNodes>
            0 -1 492 -6.6099350806325674e-04</internalNodes>
          <leafValues>
            -8.4343659877777100e-01 5.6411299854516983e-02</leafValues></_>
        <_>
          <internalNodes>
            0 -1 492 3.3730646828189492e-04</internalNodes>
          <leafValues>
            8.7291032075881958e-02 -5.6171697378158569e-01</leafValues></_>
        <_>
          <internalNodes>
            0 -1 476 4.7847822308540344e-02</internalNodes>
          <leafValues>
            -9.0001136064529419e-02 5.5392926931381226e-01</leafValues></_>
        <_>
          <internalNodes>
            0 -1 218 -1.1932755820453167e-02</internalNodes>
          <leafValues>
            2.1742576360702515e-01 -1.9419984519481659e-01</leafValues></_>
        <_>
          <internalNodes>
            0 -1 479 -7.3753047036007047e-04</internalNodes>
          <leafValues>
            -6.0898685455322266e-01 7.0778377354145050e-02</leafValues></_>
        <_>
          <internalNodes>
            0 -1 335 -1.2046489864587784e-03</internalNodes>
          <leafValues>
            -7.5588148832321167e-01 4.8549346625804901e-02</leafValues></_>
        <_>
          <internalNodes>
            0 -1 225 -3.0964918551035225e-05</internalNodes>
          <leafValues>
            1.8469259142875671e-01 -2.3064801096916199e-01</leafValues></_>
        <_>
          <internalNodes>
            0 -1 213 -2.9678246006369591e-02</internalNodes>
          <leafValues>
            4.4846868515014648e-01 -1.0689927637577057e-01</leafValues></_>
        <_>
          <internalNodes>
            0 -1 145 -4.8865622375160456e-04</internalNodes>
          <leafValues>
            2.1764902770519257e-01 -1.8382565677165985e-01</leafValues></_>
        <_>
          <internalNodes>
            0 -1 97 -2.1261133253574371e-02</internalNodes>
          <leafValues>
            4.6997243165969849e-01 -8.9685171842575073e-02</leafValues></_>
        <_>
          <internalNodes>
            0 -1 304 3.8938596844673157e-02</internalNodes>
          <leafValues>
            -1.3476049900054932e-01 3.2534107565879822e-01</leafValues></_>
        <_>
          <internalNodes>
            0 -1 356 2.1568736061453819e-02</internalNodes>
          <leafValues>
            -8.0150254070758820e-02 5.5769872665405273e-01</leafValues></_>
        <_>
          <internalNodes>
            0 -1 288 -9.9267181940376759e-04</internalNodes>
          <leafValues>
            -6.4138954877853394e-01 7.4526511132717133e-02</leafValues></_>
        <_>
          <internalNodes>
            0 -1 337 7.5043673859909177e-04</internalNodes>
          <leafValues>
            1.0022637248039246e-01 -3.8650748133659363e-01</leafValues></_>
        <_>
          <internalNodes>
            0 -1 153 -3.7463651970028877e-03</internalNodes>
          <leafValues>
            3.6289051175117493e-01 -1.2621808052062988e-01</leafValues></_>
        <_>
          <internalNodes>
            0 -1 158 -3.0268207192420959e-03</internalNodes>
          <leafValues>
            -6.3496863842010498e-01 6.8607963621616364e-02</leafValues></_>
        <_>
          <internalNodes>
            0 -1 54 1.3711148872971535e-02</internalNodes>
          <leafValues>
            -1.4765983819961548e-01 2.9306197166442871e-01</leafValues></_>
        <_>
          <internalNodes>
            0 -1 123 -2.4204123765230179e-02</internalNodes>
          <leafValues>
            3.9042258262634277e-01 -1.0739982128143311e-01</leafValues></_>
        <_>
          <internalNodes>
            0 -1 299 9.2891836538910866e-04</internalNodes>
          <leafValues>
            6.2676616013050079e-02 -6.9814896583557129e-01</leafValues></_>
        <_>
          <internalNodes>
            0 -1 159 1.3223861157894135e-01</internalNodes>
          <leafValues>
            -8.2851283252239227e-02 5.5919057130813599e-01</leafValues></_>
        <_>
          <internalNodes>
            0 -1 407 -2.6058843359351158e-03</internalNodes>
          <leafValues>
            4.8296990990638733e-01 -7.3489375412464142e-02</leafValues></_>
        <_>
          <internalNodes>
            0 -1 292 -8.2578854635357857e-03</internalNodes>
          <leafValues>
            2.0650571584701538e-01 -1.8785418570041656e-01</leafValues></_>
        <_>
          <internalNodes>
            0 -1 375 -8.9325346052646637e-02</internalNodes>
          <leafValues>
            6.2541610002517700e-01 -6.2346756458282471e-02</leafValues></_>
        <_>
          <internalNodes>
            0 -1 248 4.1951928287744522e-02</internalNodes>
          <leafValues>
            -6.8041183054447174e-02 5.2729409933090210e-01</leafValues></_>
        <_>
          <internalNodes>
            0 -1 132 -5.3857406601309776e-04</internalNodes>
          <leafValues>
            -5.0054901838302612e-01 8.5960105061531067e-02</leafValues></_>
        <_>
          <internalNodes>
            0 -1 233 -1.0944854002445936e-03</internalNodes>
          <leafValues>
            2.4370020627975464e-01 -1.6594418883323669e-01</leafValues></_>
        <_>
          <internalNodes>
            0 -1 190 8.6465198546648026e-04</internalNodes>
          <leafValues>
            8.6106203496456146e-02 -4.7320866584777832e-01</leafValues></_>
        <_>
          <internalNodes>
            0 -1 154 -8.5310712456703186e-03</internalNodes>
          <leafValues>
            2.1651549637317657e-01 -1.8526059389114380e-01</leafValues></_>
        <_>
          <internalNodes>
            0 -1 339 -3.8286394556052983e-05</internalNodes>
          <leafValues>
            1.8781717121601105e-01 -2.3234379291534424e-01</leafValues></_>
        <_>
          <internalNodes>
            0 -1 269 -1.4633543323725462e-03</internalNodes>
          <leafValues>
            -8.5151755809783936e-01 4.5471496880054474e-02</leafValues></_>
        <_>
          <internalNodes>
            0 -1 182 -1.2703168205916882e-02</internalNodes>
          <leafValues>
            -8.8467854261398315e-01 3.1200520694255829e-02</leafValues></_>
        <_>
          <internalNodes>
            0 -1 365 1.9215587526559830e-02</internalNodes>
          <leafValues>
            -9.2675842344760895e-02 4.6478241682052612e-01</leafValues></_></weakClassifiers></_>
    <!-- stage 2 -->
    <_>
      <maxWeakCount>58</maxWeakCount>
      <stageThreshold>-1.4303799867630005e+00</stageThreshold>
      <weakClassifiers>
        <_>
          <internalNodes>
            0 -1 19 -2.9655617475509644e-01</internalNodes>
          <leafValues>
            -3.8119658827781677e-01 -8.0429595708847046e-01</leafValues></_>
        <_>
          <internalNodes>
            0 -1 50 -2.1582162380218506e-01</internalNodes>
          <leafValues>
            -2.5452667847275734e-02 -4.3853965401649475e-01</leafValues></_>
        <_>
          <internalNodes>
            0 -1 240 -2.9868684709072113e-02</internalNodes>
          <leafValues>
            2.1291662752628326e-01 -2.2809371352195740e-01</leafValues></_>
        <_>
          <internalNodes>
            0 -1 215 -2.5683546438813210e-02</internalNodes>
          <leafValues>
            3.0718645453453064e-01 -1.2737543880939484e-01</leafValues></_>
        <_>
          <internalNodes>
            0 -1 115 -7.5429538264870644e-03</internalNodes>
          <leafValues>
            2.1997620165348053e-01 -1.7012380063533783e-01</leafValues></_>
        <_>
          <internalNodes>
            0 -1 72 -1.3859075806976762e-05</internalNodes>
          <leafValues>
            2.3223982751369476e-01 -1.6271474957466125e-01</leafValues></_>
        <_>
          <internalNodes>
            0 -1 318 -8.2207415252923965e-03</internalNodes>
          <leafValues>
            1.7558336257934570e-01 -2.0610961318016052e-01</leafValues></_>
        <_>
          <internalNodes>
            0 -1 183 -6.6175181418657303e-03</internalNodes>
          <leafValues>
            -6.8107628822326660e-01 5.7409659028053284e-02</leafValues></_>
        <_>
          <internalNodes>
            0 -1 78 -4.2116316035389900e-04</internalNodes>
          <leafValues>
            -3.9787995815277100e-01 6.6393464803695679e-02</leafValues></_>
        <_>
          <internalNodes>
            0 -1 221 -3.0116178095340729e-03</internalNodes>
          <leafValues>
            -7.8834944963455200e-01 3.7741802632808685e-02</leafValues></_>
        <_>
          <internalNodes>
            0 -1 438 -1.3125526493240613e-05</internalNodes>
          <leafValues>
            1.8015706539154053e-01 -1.8107569217681885e-01</leafValues></_>
        <_>
          <internalNodes>
            0 -1 217 -8.2605960778892040e-04</internalNodes>
          <leafValues>
            1.8113537132740021e-01 -1.7280714213848114e-01</leafValues></_>
        <_>
          <internalNodes>
            0 -1 373 9.7494700457900763e-04</internalNodes>
          <leafValues>
            9.5648773014545441e-02 -3.2969239354133606e-01</leafValues></_>
        <_>
          <internalNodes>
            0 -1 476 5.3098276257514954e-02</internalNodes>
          <leafValues>
            -7.1600720286369324e-02 5.3229820728302002e-01</leafValues></_>
        <_>
          <internalNodes>
            0 -1 395 -1.0608815355226398e-03</internalNodes>
          <leafValues>
            -6.0331249237060547e-01 5.2762657403945923e-02</leafValues></_>
        <_>
          <internalNodes>
            0 -1 445 -3.5813511349260807e-03</internalNodes>
          <leafValues>
            2.7475747466087341e-01 -1.1578767746686935e-01</leafValues></_>
        <_>
          <internalNodes>
            0 -1 134 2.0149702322669327e-04</internalNodes>
          <leafValues>
            1.3244920969009399e-01 -2.2519233822822571e-01</leafValues></_>
        <_>
          <internalNodes>
            0 -1 228 -2.8901887126266956e-03</internalNodes>
          <leafValues>
            2.9497981071472168e-01 -1.0500361025333405e-01</leafValues></_>
        <_>
          <internalNodes>
            0 -1 279 -3.8544245064258575e-02</internalNodes>
          <leafValues>
            1.8952207267284393e-01 -1.5718446671962738e-01</leafValues></_>
        <_>
          <internalNodes>
            0 -1 181 3.7592396140098572e-02</internalNodes>
          <leafValues>
            -5.2652522921562195e-02 6.0568386316299438e-01</leafValues></_>
        <_>
          <internalNodes>
            0 -1 280 -2.4453792721033096e-03</internalNodes>
          <leafValues>
            1.3010640442371368e-01 -2.3049852252006531e-01</leafValues></_>
        <_>
          <internalNodes>
            0 -1 146 -4.6804212615825236e-04</internalNodes>
          <leafValues>
            2.0855323970317841e-01 -1.5628758072853088e-01</leafValues></_>
        <_>
          <internalNodes>
            0 -1 415 -1.3392948858381715e-05</internalNodes>
          <leafValues>
            1.6630500555038452e-01 -1.7862477898597717e-01</leafValues></_>
        <_>
          <internalNodes>
            0 -1 17 -5.6429924443364143e-03</internalNodes>
          <leafValues>
            2.3871813714504242e-01 -1.2555083632469177e-01</leafValues></_>
        <_>
          <internalNodes>
            0 -1 137 2.4922594893723726e-03</internalNodes>
          <leafValues>
            -1.0669405013322830e-01 2.8225788474082947e-01</leafValues></_>
        <_>
          <internalNodes>
            0 -1 149 -4.6223096433095634e-04</internalNodes>
          <leafValues>
            -4.2173731327056885e-01 7.0294842123985291e-02</leafValues></_>
        <_>
          <internalNodes>
            0 -1 287 2.0525183528661728e-02</internalNodes>
          <leafValues>
            -7.6105229556560516e-02 3.7246426939964294e-01</leafValues></_>
        <_>
          <internalNodes>
            0 -1 289 -5.3743217140436172e-03</internalNodes>
          <leafValues>
            -9.3636852502822876e-01 3.0918203294277191e-02</leafValues></_>
        <_>
          <internalNodes>
            0 -1 224 -1.1220757151022553e-03</internalNodes>
          <leafValues>
            1.1807984858751297e-01 -2.1172431111335754e-01</leafValues></_>
        <_>
          <internalNodes>
            0 -1 255 -5.7578410953283310e-02</internalNodes>
          <leafValues>
            -9.8029685020446777e-01 2.5863997638225555e-02</leafValues></_>
        <_>
          <internalNodes>
            0 -1 127 -1.3780642300844193e-02</internalNodes>
          <leafValues>
            2.6244097948074341e-01 -1.0907754302024841e-01</leafValues></_>
        <_>
          <internalNodes>
            0 -1 128 3.8357800804078579e-03</internalNodes>
          <leafValues>
            -1.3129024207592010e-01 2.2898474335670471e-01</leafValues></_>
        <_>
          <internalNodes>
            0 -1 37 -2.9946654103696346e-03</internalNodes>
          <leafValues>
            1.8914650380611420e-01 -1.5430751442909241e-01</leafValues></_>
        <_>
          <internalNodes>
            0 -1 295 3.7076212465763092e-02</internalNodes>
          <leafValues>
            5.5977068841457367e-02 -5.3420126438140869e-01</leafValues></_>
        <_>
          <internalNodes>
            0 -1 205 1.0806876234710217e-03</internalNodes>
          <leafValues>
            3.3873599022626877e-02 -6.7501032352447510e-01</leafValues></_>
        <_>
          <internalNodes>
            0 -1 441 1.2015721760690212e-02</internalNodes>
          <leafValues>
            -1.0928353667259216e-01 2.4384534358978271e-01</leafValues></_>
        <_>
          <internalNodes>
            0 -1 442 -1.1312218382954597e-02</internalNodes>
          <leafValues>
            3.0404317378997803e-01 -8.5563845932483673e-02</leafValues></_>
        <_>
          <internalNodes>
            0 -1 211 3.0698254704475403e-04</internalNodes>
          <leafValues>
            1.2292885035276413e-01 -2.2171910107135773e-01</leafValues></_>
        <_>
          <internalNodes>
            0 -1 60 -7.4008139781653881e-03</internalNodes>
          <leafValues>
            2.0546275377273560e-01 -1.3798244297504425e-01</leafValues></_>
        <_>
          <internalNodes>
            0 -1 141 -1.2484415201470256e-03</internalNodes>
          <leafValues>
            1.9841769337654114e-01 -1.4211501181125641e-01</leafValues></_>
        <_>
          <internalNodes>
            0 -1 25 -1.8759502563625574e-03</internalNodes>
          <leafValues>
            -4.4018942117691040e-01 6.2045171856880188e-02</leafValues></_>
        <_>
          <internalNodes>
            0 -1 196 -2.2364766336977482e-03</internalNodes>
          <leafValues>
            2.4993103742599487e-01 -1.1202770471572876e-01</leafValues></_>
        <_>
          <internalNodes>
            0 -1 495 -2.2769605857320130e-04</internalNodes>
          <leafValues>
            -3.8989850878715515e-01 7.4089132249355316e-02</leafValues></_>
        <_>
          <internalNodes>
            0 -1 170 4.1732480749487877e-03</internalNodes>
          <leafValues>
            4.1533417999744415e-02 -5.9954041242599487e-01</leafValues></_>
        <_>
          <internalNodes>
            0 -1 156 -4.0501281619071960e-03</internalNodes>
          <leafValues>
            2.3417678475379944e-01 -1.1854906380176544e-01</leafValues></_>
        <_>
          <internalNodes>
            0 -1 495 2.7714934549294412e-04</internalNodes>
          <leafValues>
            6.7304544150829315e-02 -3.8397496938705444e-01</leafValues></_>
        <_>
          <internalNodes>
            0 -1 382 -3.3342260867357254e-03</internalNodes>
          <leafValues>
            1.6595041751861572e-01 -1.5113563835620880e-01</leafValues></_>
        <_>
          <internalNodes>
            0 -1 361 -5.3659128025174141e-04</internalNodes>
          <leafValues>
            -5.3488975763320923e-01 4.7939617186784744e-02</leafValues></_>
        <_>
          <internalNodes>
            0 -1 347 -2.1659000776708126e-03</internalNodes>
          <leafValues>
            2.4697795510292053e-01 -1.1039020121097565e-01</leafValues></_>
        <_>
          <internalNodes>
            0 -1 413 -4.7402018681168556e-03</internalNodes>
          <leafValues>
            2.0040473341941833e-01 -1.3342092931270599e-01</leafValues></_>
        <_>
          <internalNodes>
            0 -1 241 -7.4428170919418335e-02</internalNodes>
          <leafValues>
            -6.1017835140228271e-01 5.2251722663640976e-02</leafValues></_>
        <_>
          <internalNodes>
            0 -1 53 -4.9719467759132385e-02</internalNodes>
          <leafValues>
            3.9201259613037109e-01 -7.1250125765800476e-02</leafValues></_>
        <_>
          <internalNodes>
            0 -1 84 1.6546983271837234e-02</internalNodes>
          <leafValues>
            5.5633623152971268e-02 -4.9775755405426025e-01</leafValues></_>
        <_>
          <internalNodes>
            0 -1 104 4.4504040852189064e-03</internalNodes>
          <leafValues>
            -1.4035090804100037e-01 2.1202366054058075e-01</leafValues></_>
        <_>
          <internalNodes>
            0 -1 220 -1.1331143788993359e-02</internalNodes>
          <leafValues>
            2.0739698410034180e-01 -1.3374769687652588e-01</leafValues></_>
        <_>
          <internalNodes>
            0 -1 204 -2.6556516531854868e-03</internalNodes>
          <leafValues>
            2.3067526519298553e-01 -1.1989292502403259e-01</leafValues></_>
        <_>
          <internalNodes>
            0 -1 14 -2.7249052654951811e-03</internalNodes>
          <leafValues>
            -2.6856440305709839e-01 1.1391688883304596e-01</leafValues></_>
        <_>
          <internalNodes>
            0 -1 144 3.9763085078448057e-04</internalNodes>
          <leafValues>
            -1.2662020325660706e-01 2.1089795231819153e-01</leafValues></_></weakClassifiers></_>
    <!-- stage 3 -->
    <_>
      <maxWeakCount>70</maxWeakCount>
      <stageThreshold>-1.3489112854003906e+00</stageThreshold>
      <weakClassifiers>
        <_>
          <internalNodes>
            0 -1 20 -5.1334488391876221e-01</internalNodes>
          <leafValues>
            -4.6578946709632874e-01 -8.0700778961181641e-01</leafValues></_>
        <_>
          <internalNodes>
            0 -1 218 -1.1188236065208912e-02</internalNodes>
          <leafValues>
            -8.1024341285228729e-02 -4.5350891351699829e-01</leafValues></_>
        <_>
          <internalNodes>
            0 -1 113 -2.9762396588921547e-03</internalNodes>
          <leafValues>
            2.0212537050247192e-01 -1.5135051310062408e-01</leafValues></_>
        <_>
          <internalNodes>
            0 -1 58 -1.3704955577850342e-02</internalNodes>
          <leafValues>
            1.3702797889709473e-01 -2.0282392203807831e-01</leafValues></_>
        <_>
          <internalNodes>
            0 -1 325 -3.9238369936356321e-05</internalNodes>
          <leafValues>
            1.8168985843658447e-01 -1.8046742677688599e-01</leafValues></_>
        <_>
          <internalNodes>
            0 -1 285 9.1538194101303816e-04</internalNodes>
          <leafValues>
            2.3794589564204216e-02 -9.3888002634048462e-01</leafValues></_>
        <_>
          <internalNodes>
            0 -1 259 -1.1328179389238358e-03</internalNodes>
          <leafValues>
            1.4667347073554993e-01 -1.7284998297691345e-01</leafValues></_>
        <_>
          <internalNodes>
            0 -1 81 -1.6793634742498398e-02</internalNodes>
          <leafValues>
            2.1420009434223175e-01 -1.3846752047538757e-01</leafValues></_>
        <_>
          <internalNodes>
            0 -1 470 -7.0812150835990906e-02</internalNodes>
          <leafValues>
            -5.6882381439208984e-01 3.7610940635204315e-02</leafValues></_>
        <_>
          <internalNodes>
            0 -1 306 -1.2238556519150734e-02</internalNodes>
          <leafValues>
            4.4896066188812256e-01 -5.3236924111843109e-02</leafValues></_>
        <_>
          <internalNodes>
            0 -1 314 -5.3584444685839117e-05</internalNodes>
          <leafValues>
            1.5089890360832214e-01 -1.6222272813320160e-01</leafValues></_>
        <_>
          <internalNodes>
            0 -1 206 -1.7713768407702446e-02</internalNodes>
          <leafValues>
            1.3862060010433197e-01 -1.7315688729286194e-01</leafValues></_>
        <_>
          <internalNodes>
            0 -1 273 3.6265666130930185e-04</internalNodes>
          <leafValues>
            6.7487791180610657e-02 -3.8628295063972473e-01</leafValues></_>
        <_>
          <internalNodes>
            0 -1 425 3.8123519625514746e-03</internalNodes>
          <leafValues>
            -1.1911216378211975e-01 2.2459650039672852e-01</leafValues></_>
        <_>
          <internalNodes>
            0 -1 444 -1.2839250266551971e-02</internalNodes>
          <leafValues>
            2.6828557252883911e-01 -9.5827087759971619e-02</leafValues></_>
        <_>
          <internalNodes>
            0 -1 151 -4.3834972381591797e-01</internalNodes>
          <leafValues>
            -7.9063045978546143e-01 3.0068723484873772e-02</leafValues></_>
        <_>
          <internalNodes>
            0 -1 177 -3.5856254398822784e-03</internalNodes>
          <leafValues>
            1.7979636788368225e-01 -1.4414247870445251e-01</leafValues></_>
        <_>
          <internalNodes>
            0 -1 180 5.2686417475342751e-03</internalNodes>
          <leafValues>
            -5.2992500364780426e-02 6.0095071792602539e-01</leafValues></_>
        <_>
          <internalNodes>
            0 -1 396 -1.3100953074172139e-03</internalNodes>
          <leafValues>
            -5.0627279281616211e-01 5.4915767163038254e-02</leafValues></_>
        <_>
          <internalNodes>
            0 -1 74 -2.4112039804458618e-01</internalNodes>
          <leafValues>
            -8.9472907781600952e-01 2.2775545716285706e-02</leafValues></_>
        <_>
          <internalNodes>
            0 -1 468 -4.5973242959007621e-04</internalNodes>
          <leafValues>
            -2.2199547290802002e-01 1.1152204126119614e-01</leafValues></_>
        <_>
          <internalNodes>
            0 -1 251 -1.1584620922803879e-02</internalNodes>
          <leafValues>
            1.6615217924118042e-01 -1.6448621451854706e-01</leafValues></_>
        <_>
          <internalNodes>
            0 -1 401 9.8664864897727966e-02</internalNodes>
          <leafValues>
            3.5480573773384094e-02 -6.8128275871276855e-01</leafValues></_>
        <_>
          <internalNodes>
            0 -1 3 -8.0168522894382477e-02</internalNodes>
          <leafValues>
            -6.3106316328048706e-01 3.0750093981623650e-02</leafValues></_>
        <_>
          <internalNodes>
            0 -1 9 1.4695852994918823e-02</internalNodes>
          <leafValues>
            -6.1242539435625076e-02 4.9958771467208862e-01</leafValues></_>
        <_>
          <internalNodes>
            0 -1 252 -6.4208647236227989e-03</internalNodes>
          <leafValues>
            -7.5043505430221558e-01 3.7846539169549942e-02</leafValues></_>
        <_>
          <internalNodes>
            0 -1 348 -1.4189083594828844e-03</internalNodes>
          <leafValues>
            -5.0815880298614502e-01 3.9890427142381668e-02</leafValues></_>
        <_>
          <internalNodes>
            0 -1 22 -4.9442038871347904e-03</internalNodes>
          <leafValues>
            -7.5598645210266113e-01 2.8247002512216568e-02</leafValues></_>
        <_>
          <internalNodes>
            0 -1 297 -8.9378058910369873e-03</internalNodes>
          <leafValues>
            -7.7372336387634277e-01 2.1711140871047974e-02</leafValues></_>
        <_>
          <internalNodes>
            0 -1 34 3.8574333302676678e-03</internalNodes>
          <leafValues>
            -8.5979610681533813e-02 2.7461436390876770e-01</leafValues></_>
        <_>
          <internalNodes>
            0 -1 105 -3.3574644476175308e-05</internalNodes>
          <leafValues>
            1.3825352489948273e-01 -1.7335833609104156e-01</leafValues></_>
        <_>
          <internalNodes>
            0 -1 466 1.7358621698804200e-04</internalNodes>
          <leafValues>
            1.0340043902397156e-01 -2.1732674539089203e-01</leafValues></_>
        <_>
          <internalNodes>
            0 -1 102 9.2655944172292948e-04</internalNodes>
          <leafValues>
            -8.9366815984249115e-02 2.5504878163337708e-01</leafValues></_>
        <_>
          <internalNodes>
            0 -1 490 2.6865577092394233e-04</internalNodes>
          <leafValues>
            1.0504889488220215e-01 -2.0255601406097412e-01</leafValues></_>
        <_>
          <internalNodes>
            0 -1 464 8.2162450999021530e-03</internalNodes>
          <leafValues>
            -7.5113825500011444e-02 3.0950486660003662e-01</leafValues></_>
        <_>
          <internalNodes>
            0 -1 393 4.0410041809082031e-02</internalNodes>
          <leafValues>
            -4.6174641698598862e-02 5.0864166021347046e-01</leafValues></_>
        <_>
          <internalNodes>
            0 -1 296 -5.1577817648649216e-03</internalNodes>
          <leafValues>
            1.8105350434780121e-01 -1.2970082461833954e-01</leafValues></_>
        <_>
          <internalNodes>
            0 -1 452 5.3498833440244198e-03</internalNodes>
          <leafValues>
            -9.9130935966968536e-02 2.8237816691398621e-01</leafValues></_>
        <_>
          <internalNodes>
            0 -1 13 2.4164229631423950e-02</internalNodes>
          <leafValues>
            -8.3466239273548126e-02 2.8389909863471985e-01</leafValues></_>
        <_>
          <internalNodes>
            0 -1 362 -1.3741364236921072e-03</internalNodes>
          <leafValues>
            -7.0955038070678711e-01 3.5338900983333588e-02</leafValues></_>
        <_>
          <internalNodes>
            0 -1 275 -4.2242472991347313e-03</internalNodes>
          <leafValues>
            1.2261760234832764e-01 -1.9658055901527405e-01</leafValues></_>
        <_>
          <internalNodes>
            0 -1 390 -1.0383940534666181e-03</internalNodes>
          <leafValues>
            -5.8106899261474609e-01 3.8450837135314941e-02</leafValues></_>
        <_>
          <internalNodes>
            0 -1 242 -5.5483877658843994e-03</internalNodes>
          <leafValues>
            2.3255725204944611e-01 -9.5857776701450348e-02</leafValues></_>
        <_>
          <internalNodes>
            0 -1 188 2.7536619454622269e-03</internalNodes>
          <leafValues>
            -8.0577507615089417e-02 2.9387879371643066e-01</leafValues></_>
        <_>
          <internalNodes>
            0 -1 209 3.1990889692679048e-04</internalNodes>
          <leafValues>
            1.1899345368146896e-01 -1.8952444195747375e-01</leafValues></_>
        <_>
          <internalNodes>
            0 -1 475 -6.3560821581631899e-04</internalNodes>
          <leafValues>
            2.0821917057037354e-01 -1.1005010455846786e-01</leafValues></_>
        <_>
          <internalNodes>
            0 -1 363 -7.6483772136271000e-04</internalNodes>
          <leafValues>
            2.1515123546123505e-01 -1.1827345937490463e-01</leafValues></_>
        <_>
          <internalNodes>
            0 -1 355 -6.3438438810408115e-03</internalNodes>
          <leafValues>
            -8.0805456638336182e-01 2.9901647940278053e-02</leafValues></_>
        <_>
          <internalNodes>
            0 -1 162 7.6793596148490906e-02</internalNodes>
          <leafValues>
            -4.1758630424737930e-02 6.7650300264358521e-01</leafValues></_>
        <_>
          <internalNodes>
            0 -1 149 1.1008838191628456e-04</internalNodes>
          <leafValues>
            1.0168721526861191e-01 -2.4740497767925262e-01</leafValues></_>
        <_>
          <internalNodes>
            0 -1 143 -5.3291686344891787e-04</internalNodes>
          <leafValues>
            2.0778588950634003e-01 -1.0820475965738297e-01</leafValues></_>
        <_>
          <internalNodes>
            0 -1 387 -6.5555660985410213e-03</internalNodes>
          <leafValues>
            3.4138590097427368e-01 -6.3987508416175842e-02</leafValues></_>
        <_>
          <internalNodes>
            0 -1 409 1.1220515443710610e-04</internalNodes>
          <leafValues>
            -1.8039743602275848e-01 1.3588076829910278e-01</leafValues></_>
        <_>
          <internalNodes>
            0 -1 360 -7.9161650501191616e-04</internalNodes>
          <leafValues>
            1.6210441291332245e-01 -1.4320293068885803e-01</leafValues></_>
        <_>
          <internalNodes>
            0 -1 232 -1.3508637493941933e-05</internalNodes>
          <leafValues>
            1.2333154678344727e-01 -1.8886496126651764e-01</leafValues></_>
        <_>
          <internalNodes>
            0 -1 166 -2.3007479030638933e-03</internalNodes>
          <leafValues>
            2.0652315020561218e-01 -1.2341202050447464e-01</leafValues></_>
        <_>
          <internalNodes>
            0 -1 302 9.2880567535758018e-05</internalNodes>
          <leafValues>
            1.3657815754413605e-01 -1.7083829641342163e-01</leafValues></_>
        <_>
          <internalNodes>
            0 -1 290 -9.9262092262506485e-03</internalNodes>
          <leafValues>
            -7.1993923187255859e-01 3.0315583571791649e-02</leafValues></_>
        <_>
          <internalNodes>
            0 -1 293 -4.6552644926123321e-04</internalNodes>
          <leafValues>
            1.3777613639831543e-01 -1.7405593395233154e-01</leafValues></_>
        <_>
          <internalNodes>
            0 -1 76 -3.8724744319915771e-01</internalNodes>
          <leafValues>
            -6.7450565099716187e-01 3.5708274692296982e-02</leafValues></_>
        <_>
          <internalNodes>
            0 -1 276 -1.9055772572755814e-03</internalNodes>
          <leafValues>
            1.9682428240776062e-01 -1.4223492145538330e-01</leafValues></_>
        <_>
          <internalNodes>
            0 -1 244 -7.5246877968311310e-03</internalNodes>
          <leafValues>
            -3.6094620823860168e-01 9.1272711753845215e-02</leafValues></_>
        <_>
          <internalNodes>
            0 -1 485 -1.8637615721672773e-04</internalNodes>
          <leafValues>
            1.8677277863025665e-01 -1.2404051423072815e-01</leafValues></_>
        <_>
          <internalNodes>
            0 -1 408 -8.7882939260452986e-04</internalNodes>
          <leafValues>
            1.8548622727394104e-01 -1.2779510021209717e-01</leafValues></_>
        <_>
          <internalNodes>
            0 -1 62 -1.2762656807899475e-01</internalNodes>
          <leafValues>
            -5.7459831237792969e-01 4.1050292551517487e-02</leafValues></_>
        <_>
          <internalNodes>
            0 -1 131 9.4769784482195973e-05</internalNodes>
          <leafValues>
            9.7504451870918274e-02 -2.3360404372215271e-01</leafValues></_>
        <_>
          <internalNodes>
            0 -1 142 -6.8923272192478180e-03</internalNodes>
          <leafValues>
            2.5247919559478760e-01 -8.6103163659572601e-02</leafValues></_>
        <_>
          <internalNodes>
            0 -1 85 -1.4786154031753540e-01</internalNodes>
          <leafValues>
            3.3708769083023071e-01 -6.8117402493953705e-02</leafValues></_>
        <_>
          <internalNodes>
            0 -1 328 -2.6231402531266212e-02</internalNodes>
          <leafValues>
            -2.4721832573413849e-01 1.0768155753612518e-01</leafValues></_>
        <_>
          <internalNodes>
            0 -1 4 3.8741543889045715e-02</internalNodes>
          <leafValues>
            4.1582494974136353e-02 -5.5391502380371094e-01</leafValues></_></weakClassifiers></_>
    <!-- stage 4 -->
    <_>
      <maxWeakCount>87</maxWeakCount>
      <stageThreshold>-1.3629052639007568e+00</stageThreshold>
      <weakClassifiers>
        <_>
          <internalNodes>
            0 -1 18 -2.7651900053024292e-01</internalNodes>
          <leafValues>
            -5.4058194160461426e-01 -7.8395897150039673e-01</leafValues></_>
        <_>
          <internalNodes>
            0 -1 63 -7.5325161218643188e-02</internalNodes>
          <leafValues>
            -2.3856276646256447e-02 -3.5913926362991333e-01</leafValues></_>
        <_>
          <internalNodes>
            0 -1 327 -4.5267622917890549e-03</internalNodes>
          <leafValues>
            -6.0505026578903198e-01 2.9166908934712410e-02</leafValues></_>
        <_>
          <internalNodes>
            0 -1 327 -4.5101251453161240e-03</internalNodes>
          <leafValues>
            1. -8.1724399933591485e-04</leafValues></_>
        <_>
          <internalNodes>
            0 -1 327 -4.4720047153532505e-03</internalNodes>
          <leafValues>
            -7.9450637102127075e-01 7.2099239332601428e-04</leafValues></_>
        <_>
          <internalNodes>
            0 -1 346 1.0206961305812001e-03</internalNodes>
          <leafValues>
            4.0874965488910675e-02 -9.3388772010803223e-01</leafValues></_>
        <_>
          <internalNodes>
            0 -1 173 -3.2860382925719023e-03</internalNodes>
          <leafValues>
            2.2790224850177765e-01 -1.0054738819599152e-01</leafValues></_>
        <_>
          <internalNodes>
            0 -1 379 1.1814653873443604e-02</internalNodes>
          <leafValues>
            -9.8269641399383545e-02 2.2754535079002380e-01</leafValues></_>
        <_>
          <internalNodes>
            0 -1 418 -2.2973394021391869e-02</internalNodes>
          <leafValues>
            3.2319298386573792e-01 -7.3303557932376862e-02</leafValues></_>
        <_>
          <internalNodes>
            0 -1 392 6.7159917671233416e-04</internalNodes>
          <leafValues>
            2.9076078906655312e-02 -6.6896849870681763e-01</leafValues></_>
        <_>
          <internalNodes>
            0 -1 253 -9.0509076835587621e-04</internalNodes>
          <leafValues>
            1.6164860129356384e-01 -1.2590484321117401e-01</leafValues></_>
        <_>
          <internalNodes>
            0 -1 417 -7.1258342359215021e-04</internalNodes>
          <leafValues>
            -2.4775309860706329e-01 8.5503764450550079e-02</leafValues></_>
        <_>
          <internalNodes>
            0 -1 100 -1.1069312691688538e-02</internalNodes>
          <leafValues>
            -6.6788631677627563e-01 4.2321670800447464e-02</leafValues></_>
        <_>
          <internalNodes>
            0 -1 216 -6.5804412588477135e-03</internalNodes>
          <leafValues>
            3.8395383954048157e-01 -6.0113970190286636e-02</leafValues></_>
        <_>
          <internalNodes>
            0 -1 250 -2.8738372493535280e-03</internalNodes>
          <leafValues>
            1.9050528109073639e-01 -1.2440565973520279e-01</leafValues></_>
        <_>
          <internalNodes>
            0 -1 392 4.5465687435353175e-05</internalNodes>
          <leafValues>
            -1.2027697265148163e-01 1.7220820486545563e-01</leafValues></_>
        <_>
          <internalNodes>
            0 -1 282 3.7599440664052963e-02</internalNodes>
          <leafValues>
            -8.7016902863979340e-02 2.8180447220802307e-01</leafValues></_>
        <_>
          <internalNodes>
            0 -1 392 -2.9200749850133434e-05</internalNodes>
          <leafValues>
            1.8131904304027557e-01 -1.0770411789417267e-01</leafValues></_>
        <_>
          <internalNodes>
            0 -1 324 1.3761024456471205e-03</internalNodes>
          <leafValues>
            7.1430362761020660e-02 -3.0571591854095459e-01</leafValues></_>
        <_>
          <internalNodes>
            0 -1 371 -7.3282346129417419e-03</internalNodes>
          <leafValues>
            2.2485399246215820e-01 -1.1330036073923111e-01</leafValues></_>
        <_>
          <internalNodes>
            0 -1 474 4.6087293885648251e-03</internalNodes>
          <leafValues>
            -9.3334995210170746e-02 2.5243258476257324e-01</leafValues></_>
        <_>
          <internalNodes>
            0 -1 195 -6.9016758352518082e-03</internalNodes>
          <leafValues>
            -4.8939320445060730e-01 4.3662335723638535e-02</leafValues></_>
        <_>
          <internalNodes>
            0 -1 381 1.7796382308006287e-03</internalNodes>
          <leafValues>
            -1.5346077084541321e-01 1.3725745677947998e-01</leafValues></_>
        <_>
          <internalNodes>
            0 -1 39 -3.4595002944115549e-05</internalNodes>
          <leafValues>
            1.3898134231567383e-01 -1.5398150682449341e-01</leafValues></_>
        <_>
          <internalNodes>
            0 -1 424 1.3989645987749100e-02</internalNodes>
          <leafValues>
            7.9185113310813904e-02 -2.6225686073303223e-01</leafValues></_>
        <_>
          <internalNodes>
            0 -1 129 -1.7965946346521378e-02</internalNodes>
          <leafValues>
            2.5565934181213379e-01 -8.3151973783969879e-02</leafValues></_>
        <_>
          <internalNodes>
            0 -1 29 3.6732815206050873e-02</internalNodes>
          <leafValues>
            -6.4624458551406860e-02 3.3700749278068542e-01</leafValues></_>
        <_>
          <internalNodes>
            0 -1 294 2.4395644664764404e-02</internalNodes>
          <leafValues>
            3.3968020230531693e-02 -5.7816112041473389e-01</leafValues></_>
        <_>
          <internalNodes>
            0 -1 447 1.5192022547125816e-03</internalNodes>
          <leafValues>
            2.0576812326908112e-02 -8.1627577543258667e-01</leafValues></_>
        <_>
          <internalNodes>
            0 -1 184 -1.5199308109004050e-05</internalNodes>
          <leafValues>
            1.3537621498107910e-01 -1.4595425128936768e-01</leafValues></_>
        <_>
          <internalNodes>
            0 -1 435 -1.4194196410244331e-05</internalNodes>
          <leafValues>
            1.2906223535537720e-01 -1.4960627257823944e-01</leafValues></_>
        <_>
          <internalNodes>
            0 -1 420 6.3220806419849396e-02</internalNodes>
          <leafValues>
            3.7365131080150604e-02 -5.1585656404495239e-01</leafValues></_>
        <_>
          <internalNodes>
            0 -1 125 -4.0975366719067097e-03</internalNodes>
          <leafValues>
            3.0630254745483398e-01 -6.4735539257526398e-02</leafValues></_>
        <_>
          <internalNodes>
            0 -1 238 7.8558397945016623e-04</internalNodes>
          <leafValues>
            -1.4231276512145996e-01 1.5740731358528137e-01</leafValues></_>
        <_>
          <internalNodes>
            0 -1 202 -1.3902059290558100e-03</internalNodes>
          <leafValues>
            -6.8393272161483765e-01 2.9762111604213715e-02</leafValues></_>
        <_>
          <internalNodes>
            0 -1 2 -5.6571280583739281e-03</internalNodes>
          <leafValues>
            -3.2910814881324768e-01 5.5280763655900955e-02</leafValues></_>
        <_>
          <internalNodes>
            0 -1 483 -1.3445095646602567e-05</internalNodes>
          <leafValues>
            1.4911705255508423e-01 -1.3491380214691162e-01</leafValues></_>
        <_>
          <internalNodes>
            0 -1 446 1.6741696745157242e-02</internalNodes>
          <leafValues>
            -4.7571673989295959e-02 4.3299466371536255e-01</leafValues></_>
        <_>
          <internalNodes>
            0 -1 469 9.5890043303370476e-03</internalNodes>
          <leafValues>
            5.6049186736345291e-02 -3.7481805682182312e-01</leafValues></_>
        <_>
          <internalNodes>
            0 -1 61 -1.4134145341813564e-02</internalNodes>
          <leafValues>
            -8.5826122760772705e-01 2.0320564508438110e-02</leafValues></_>
        <_>
          <internalNodes>
            0 -1 191 4.2693168506957591e-04</internalNodes>
          <leafValues>
            9.1249331831932068e-02 -1.9840241968631744e-01</leafValues></_>
        <_>
          <internalNodes>
            0 -1 33 7.4711181223392487e-03</internalNodes>
          <leafValues>
            -5.2896048873662949e-02 3.6735561490058899e-01</leafValues></_>
        <_>
          <internalNodes>
            0 -1 40 -1.1353689478710294e-04</internalNodes>
          <leafValues>
            1.0458348691463470e-01 -1.9502231478691101e-01</leafValues></_>
        <_>
          <internalNodes>
            0 -1 300 -1.5454652020707726e-03</internalNodes>
          <leafValues>
            1.6442295908927917e-01 -1.2931257486343384e-01</leafValues></_>
        <_>
          <internalNodes>
            0 -1 44 5.3198065143078566e-04</internalNodes>
          <leafValues>
            -5.7512797415256500e-02 3.4997859597206116e-01</leafValues></_>
        <_>
          <internalNodes>
            0 -1 434 -3.9030383341014385e-03</internalNodes>
          <leafValues>
            -6.6053408384323120e-01 3.1422518193721771e-02</leafValues></_>
        <_>
          <internalNodes>
            0 -1 394 -3.9815073832869530e-03</internalNodes>
          <leafValues>
            2.7397933602333069e-01 -9.3983970582485199e-02</leafValues></_>
        <_>
          <internalNodes>
            0 -1 5 2.9921196401119232e-03</internalNodes>
          <leafValues>
            6.2405653297901154e-02 -2.8532284498214722e-01</leafValues></_>
        <_>
          <internalNodes>
            0 -1 87 -1.1834126710891724e-01</internalNodes>
          <leafValues>
            2.9963448643684387e-01 -5.8190390467643738e-02</leafValues></_>
        <_>
          <internalNodes>
            0 -1 421 -1.3822836990584619e-05</internalNodes>
          <leafValues>
            2.1815595030784607e-01 -1.0706567019224167e-01</leafValues></_>
        <_>
          <internalNodes>
            0 -1 256 -1.7297519370913506e-03</internalNodes>
          <leafValues>
            -8.7329685688018799e-01 2.2381665185093880e-02</leafValues></_>
        <_>
          <internalNodes>
            0 -1 42 9.2252008616924286e-02</internalNodes>
          <leafValues>
            -4.5223519206047058e-02 4.5102858543395996e-01</leafValues></_>
        <_>
          <internalNodes>
            0 -1 187 2.9655311664100736e-05</internalNodes>
          <leafValues>
            -1.1901850998401642e-01 1.4760556817054749e-01</leafValues></_>
        <_>
          <internalNodes>
            0 -1 239 5.4109224583953619e-04</internalNodes>
          <leafValues>
            -9.7095921635627747e-02 2.1827884018421173e-01</leafValues></_>
        <_>
          <internalNodes>
            0 -1 305 -6.4882531762123108e-02</internalNodes>
          <leafValues>
            4.4254752993583679e-01 -4.4543053954839706e-02</leafValues></_>
        <_>
          <internalNodes>
            0 -1 317 -5.4247803054749966e-03</internalNodes>
          <leafValues>
            1.3864076137542725e-01 -1.4758735895156860e-01</leafValues></_>
        <_>
          <internalNodes>
            0 -1 312 4.5182248577475548e-03</internalNodes>
          <leafValues>
            -1.2406002730131149e-01 1.6845051944255829e-01</leafValues></_>
        <_>
          <internalNodes>
            0 -1 308 5.5763488635420799e-03</internalNodes>
          <leafValues>
            9.7905986011028290e-02 -2.3211310803890228e-01</leafValues></_>
        <_>
          <internalNodes>
            0 -1 179 -1.9073298899456859e-03</internalNodes>
          <leafValues>
            -6.3651764392852783e-01 2.7456657961010933e-02</leafValues></_>
        <_>
          <internalNodes>
            0 -1 114 -1.8334437627345324e-03</internalNodes>
          <leafValues>
            2.2041544318199158e-01 -9.7421549260616302e-02</leafValues></_>
        <_>
          <internalNodes>
            0 -1 439 1.8528901273384690e-04</internalNodes>
          <leafValues>
            9.9420234560966492e-02 -2.0364712178707123e-01</leafValues></_>
        <_>
          <internalNodes>
            0 -1 433 -9.0384427458047867e-03</internalNodes>
          <leafValues>
            -7.4060106277465820e-01 2.7784105390310287e-02</leafValues></_>
        <_>
          <internalNodes>
            0 -1 193 -1.3224735994299408e-05</internalNodes>
          <leafValues>
            1.3264489173889160e-01 -1.3412779569625854e-01</leafValues></_>
        <_>
          <internalNodes>
            0 -1 257 -5.8127705415245146e-05</internalNodes>
          <leafValues>
            1.0908222198486328e-01 -1.6799239814281464e-01</leafValues></_>
        <_>
          <internalNodes>
            0 -1 89 1.3071957975625992e-02</internalNodes>
          <leafValues>
            -5.8986667543649673e-02 3.4171408414840698e-01</leafValues></_>
        <_>
          <internalNodes>
            0 -1 310 -4.5044941361993551e-04</internalNodes>
          <leafValues>
            1.0430111736059189e-01 -2.0543199777603149e-01</leafValues></_>
        <_>
          <internalNodes>
            0 -1 90 -1.8848953768610954e-02</internalNodes>
          <leafValues>
            -1.8495404720306396e-01 1.3198056817054749e-01</leafValues></_>
        <_>
          <internalNodes>
            0 -1 161 -1.9076029956340790e-01</internalNodes>
          <leafValues>
            -4.6741482615470886e-01 4.5405074954032898e-02</leafValues></_>
        <_>
          <internalNodes>
            0 -1 399 2.2290926426649094e-03</internalNodes>
          <leafValues>
            -7.8921400010585785e-02 2.8749209642410278e-01</leafValues></_>
        <_>
          <internalNodes>
            0 -1 374 1.5057777985930443e-02</internalNodes>
          <leafValues>
            -5.9121787548065186e-02 3.5990440845489502e-01</leafValues></_>
        <_>
          <internalNodes>
            0 -1 400 6.8881794810295105e-02</internalNodes>
          <leafValues>
            -6.4446799457073212e-02 3.0764812231063843e-01</leafValues></_>
        <_>
          <internalNodes>
            0 -1 117 -7.8410148620605469e-02</internalNodes>
          <leafValues>
            2.5165337324142456e-01 -9.5073595643043518e-02</leafValues></_>
        <_>
          <internalNodes>
            0 -1 135 2.8907903470098972e-04</internalNodes>
          <leafValues>
            9.2465125024318695e-02 -2.1144516766071320e-01</leafValues></_>
        <_>
          <internalNodes>
            0 -1 70 -5.8515351265668869e-03</internalNodes>
          <leafValues>
            1.6918322443962097e-01 -1.1932750791311264e-01</leafValues></_>
        <_>
          <internalNodes>
            0 -1 152 1.1984211206436157e-01</internalNodes>
          <leafValues>
            6.1758607625961304e-02 -3.3072143793106079e-01</leafValues></_>
        <_>
          <internalNodes>
            0 -1 160 -1.3624878600239754e-02</internalNodes>
          <leafValues>
            -2.6801252365112305e-01 7.0942290127277374e-02</leafValues></_>
        <_>
          <internalNodes>
            0 -1 227 -1.3777996413409710e-02</internalNodes>
          <leafValues>
            4.0787002444267273e-01 -5.3580522537231445e-02</leafValues></_>
        <_>
          <internalNodes>
            0 -1 164 9.1128097847104073e-03</internalNodes>
          <leafValues>
            3.0933627858757973e-02 -7.4806320667266846e-01</leafValues></_>
        <_>
          <internalNodes>
            0 -1 455 4.1115499334409833e-04</internalNodes>
          <leafValues>
            1.3351279497146606e-01 -1.4315105974674225e-01</leafValues></_>
        <_>
          <internalNodes>
            0 -1 422 1.1459433007985353e-03</internalNodes>
          <leafValues>
            -7.9324997961521149e-02 2.8582486510276794e-01</leafValues></_>
        <_>
          <internalNodes>
            0 -1 366 2.8259301558136940e-02</internalNodes>
          <leafValues>
            2.6542423292994499e-02 -7.9354757070541382e-01</leafValues></_>
        <_>
          <internalNodes>
            0 -1 359 -2.8096493333578110e-02</internalNodes>
          <leafValues>
            -6.8808698654174805e-01 2.2109309211373329e-02</leafValues></_>
        <_>
          <internalNodes>
            0 -1 496 -3.3082437585107982e-04</internalNodes>
          <leafValues>
            -2.8056940436363220e-01 6.4404711127281189e-02</leafValues></_>
        <_>
          <internalNodes>
            0 -1 398 -4.8287831305060536e-05</internalNodes>
          <leafValues>
            1.5001836419105530e-01 -1.2602564692497253e-01</leafValues></_>
        <_>
          <internalNodes>
            0 -1 450 -2.1697260672226548e-04</internalNodes>
          <leafValues>
            -2.6245787739753723e-01 7.7819414436817169e-02</leafValues></_>
        <_>
          <internalNodes>
            0 -1 499 8.4226345643401146e-04</internalNodes>
          <leafValues>
            -8.4857754409313202e-02 2.2875773906707764e-01</leafValues></_>
        <_>
          <internalNodes>
            0 -1 109 1.7052876064553857e-03</internalNodes>
          <leafValues>
            6.1068899929523468e-02 -3.2708480954170227e-01</leafValues></_></weakClassifiers></_>
    <!-- stage 5 -->
    <_>
      <maxWeakCount>84</maxWeakCount>
      <stageThreshold>-1.3270951509475708e+00</stageThreshold>
      <weakClassifiers>
        <_>
          <internalNodes>
            0 -1 65 -8.2988152280449867e-03</internalNodes>
          <leafValues>
            -6.1391305923461914e-01 -7.9538363218307495e-01</leafValues></_>
        <_>
          <internalNodes>
            0 -1 27 -5.4906867444515228e-02</internalNodes>
          <leafValues>
            -9.4067461788654327e-02 -4.2029905319213867e-01</leafValues></_>
        <_>
          <internalNodes>
            0 -1 108 -1.0521702468395233e-02</internalNodes>
          <leafValues>
            -3.5925200581550598e-01 5.6639611721038818e-02</leafValues></_>
        <_>
          <internalNodes>
            0 -1 245 -1.2671042233705521e-02</internalNodes>
          <leafValues>
            1.8718740344047546e-01 -1.6690893471240997e-01</leafValues></_>
        <_>
          <internalNodes>
            0 -1 493 -3.8203384610824287e-04</internalNodes>
          <leafValues>
            -2.1802957355976105e-01 1.1595474928617477e-01</leafValues></_>
        <_>
          <internalNodes>
            0 -1 139 -4.6519190073013306e-03</internalNodes>
          <leafValues>
            1.8382605910301208e-01 -1.2956553697586060e-01</leafValues></_>
        <_>
          <internalNodes>
            0 -1 110 -1.9341320730745792e-03</internalNodes>
          <leafValues>
            1.6439427435398102e-01 -1.3699868321418762e-01</leafValues></_>
        <_>
          <internalNodes>
            0 -1 326 2.3675109259784222e-03</internalNodes>
          <leafValues>
            -9.3454658985137939e-02 3.1298756599426270e-01</leafValues></_>
        <_>
          <internalNodes>
            0 -1 353 -3.3446282148361206e-01</internalNodes>
          <leafValues>
            -8.0120831727981567e-01 3.8416735827922821e-02</leafValues></_>
        <_>
          <internalNodes>
            0 -1 192 -1.0988363064825535e-03</internalNodes>
          <leafValues>
            1.1437940597534180e-01 -1.9899114966392517e-01</leafValues></_>
        <_>
          <internalNodes>
            0 -1 281 -4.3696205830201507e-04</internalNodes>
          <leafValues>
            1.9358201324939728e-01 -1.2197102606296539e-01</leafValues></_>
        <_>
          <internalNodes>
            0 -1 75 -2.1070960909128189e-02</internalNodes>
          <leafValues>
            -2.3499701917171478e-01 9.1317303478717804e-02</leafValues></_>
        <_>
          <internalNodes>
            0 -1 45 1.4112173812463880e-04</internalNodes>
          <leafValues>
            1.0233664512634277e-01 -2.2946517169475555e-01</leafValues></_>
        <_>
          <internalNodes>
            0 -1 372 1.0628991294652224e-03</internalNodes>
          <leafValues>
            3.4209966659545898e-02 -5.7170641422271729e-01</leafValues></_>
        <_>
          <internalNodes>
            0 -1 38 -2.3099551908671856e-03</internalNodes>
          <leafValues>
            1.4967077970504761e-01 -1.4644762873649597e-01</leafValues></_>
        <_>
          <internalNodes>
            0 -1 30 -6.2609072774648666e-03</internalNodes>
          <leafValues>
            3.6188697814941406e-01 -5.8286134153604507e-02</leafValues></_>
        <_>
          <internalNodes>
            0 -1 480 2.8346215913188644e-05</internalNodes>
          <leafValues>
            -1.5587016940116882e-01 1.2603634595870972e-01</leafValues></_>
        <_>
          <internalNodes>
            0 -1 361 -3.0132639949442819e-05</internalNodes>
          <leafValues>
            1.5636312961578369e-01 -1.2395654618740082e-01</leafValues></_>
        <_>
          <internalNodes>
            0 -1 258 -2.7871362399309874e-03</internalNodes>
          <leafValues>
            -6.9464898109436035e-01 2.6564093306660652e-02</leafValues></_>
        <_>
          <internalNodes>
            0 -1 32 -1.1805294081568718e-02</internalNodes>
          <leafValues>
            -6.3382107019424438e-01 2.3373864591121674e-02</leafValues></_>
        <_>
          <internalNodes>
            0 -1 377 -1.4932433259673417e-05</internalNodes>
          <leafValues>
            1.6412784159183502e-01 -1.1088658124208450e-01</leafValues></_>
        <_>
          <internalNodes>
            0 -1 270 5.0468975678086281e-03</internalNodes>
          <leafValues>
            -7.8877843916416168e-02 2.3071764409542084e-01</leafValues></_>
        <_>
          <internalNodes>
            0 -1 222 1.0077711939811707e-01</internalNodes>
          <leafValues>
            4.7626998275518417e-02 -3.8748452067375183e-01</leafValues></_>
        <_>
          <internalNodes>
            0 -1 380 -1.1837279424071312e-02</internalNodes>
          <leafValues>
            -5.1559185981750488e-01 3.4580711275339127e-02</leafValues></_>
        <_>
          <internalNodes>
            0 -1 214 -1.6700403066352010e-03</internalNodes>
          <leafValues>
            1.6539621353149414e-01 -1.1734078824520111e-01</leafValues></_>
        <_>
          <internalNodes>
            0 -1 274 -5.3672874346375465e-03</internalNodes>
          <leafValues>
            1.8595951795578003e-01 -1.1155852675437927e-01</leafValues></_>
        <_>
          <internalNodes>
            0 -1 311 -9.9217682145535946e-04</internalNodes>
          <leafValues>
            -2.2417207062244415e-01 8.5107862949371338e-02</leafValues></_>
        <_>
          <internalNodes>
            0 -1 167 -4.7387577593326569e-02</internalNodes>
          <leafValues>
            1.4076961576938629e-01 -1.3597723841667175e-01</leafValues></_>
        <_>
          <internalNodes>
            0 -1 175 -7.3767840862274170e-02</internalNodes>
          <leafValues>
            -5.1417440176010132e-01 3.8398809731006622e-02</leafValues></_>
        <_>
          <internalNodes>
            0 -1 71 -1.3125526493240613e-05</internalNodes>
          <leafValues>
            1.0317245125770569e-01 -1.9833056628704071e-01</leafValues></_>
        <_>
          <internalNodes>
            0 -1 277 -1.2465571984648705e-02</internalNodes>
          <leafValues>
            1.5881991386413574e-01 -1.2442968040704727e-01</leafValues></_>
        <_>
          <internalNodes>
            0 -1 336 1.7365682870149612e-02</internalNodes>
          <leafValues>
            -6.9147206842899323e-02 3.0711767077445984e-01</leafValues></_>
        <_>
          <internalNodes>
            0 -1 208 -1.1519271538418252e-05</internalNodes>
          <leafValues>
            1.3961841166019440e-01 -1.3019588589668274e-01</leafValues></_>
        <_>
          <internalNodes>
            0 -1 350 1.1371169421181548e-05</internalNodes>
          <leafValues>
            -1.3108196854591370e-01 1.5361857414245605e-01</leafValues></_>
        <_>
          <internalNodes>
            0 -1 334 -1.6379876062273979e-02</internalNodes>
          <leafValues>
            1.2999729812145233e-01 -1.3837455213069916e-01</leafValues></_>
        <_>
          <internalNodes>
            0 -1 443 -1.0636444203555584e-03</internalNodes>
          <leafValues>
            1.4844688773155212e-01 -1.2804627418518066e-01</leafValues></_>
        <_>
          <internalNodes>
            0 -1 35 2.1715289913117886e-03</internalNodes>
          <leafValues>
            -6.9068551063537598e-02 2.7406924962997437e-01</leafValues></_>
        <_>
          <internalNodes>
            0 -1 497 -3.3218803582713008e-04</internalNodes>
          <leafValues>
            -4.0077182650566101e-01 4.8830181360244751e-02</leafValues></_>
        <_>
          <internalNodes>
            0 -1 66 -1.4599228743463755e-03</internalNodes>
          <leafValues>
            2.6443114876747131e-01 -7.3581025004386902e-02</leafValues></_>
        <_>
          <internalNodes>
            0 -1 172 3.0325722036650404e-05</internalNodes>
          <leafValues>
            -1.2804122269153595e-01 1.4157696068286896e-01</leafValues></_>
        <_>
          <internalNodes>
            0 -1 168 3.1984250526875257e-03</internalNodes>
          <leafValues>
            2.1843314170837402e-02 -8.5726600885391235e-01</leafValues></_>
        <_>
          <internalNodes>
            0 -1 481 -4.4908143579959869e-02</internalNodes>
          <leafValues>
            -7.2772759199142456e-01 1.7676755785942078e-02</leafValues></_>
        <_>
          <internalNodes>
            0 -1 303 -4.3992344290018082e-03</internalNodes>
          <leafValues>
            2.4065610766410828e-01 -7.5456075370311737e-02</leafValues></_>
        <_>
          <internalNodes>
            0 -1 197 -7.1117561310529709e-03</internalNodes>
          <leafValues>
            1.0525576025247574e-01 -2.1193096041679382e-01</leafValues></_>
        <_>
          <internalNodes>
            0 -1 150 -1.7736972868442535e-01</internalNodes>
          <leafValues>
            -5.6752890348434448e-01 3.1852297484874725e-02</leafValues></_>
        <_>
          <internalNodes>
            0 -1 331 -9.9296532571315765e-03</internalNodes>
          <leafValues>
            1.7179538309574127e-01 -1.1875538527965546e-01</leafValues></_>
        <_>
          <internalNodes>
            0 -1 69 -1.0405892506241798e-02</internalNodes>
          <leafValues>
            -6.9189620018005371e-01 2.8194386512041092e-02</leafValues></_>
        <_>
          <internalNodes>
            0 -1 458 -1.3859075806976762e-05</internalNodes>
          <leafValues>
            1.5925829112529755e-01 -1.1972256749868393e-01</leafValues></_>
        <_>
          <internalNodes>
            0 -1 431 -1.1948457919061184e-02</internalNodes>
          <leafValues>
            2.3507545888423920e-01 -7.7333211898803711e-02</leafValues></_>
        <_>
          <internalNodes>
            0 -1 262 8.7656348943710327e-02</internalNodes>
          <leafValues>
            4.0946882218122482e-02 -5.1731729507446289e-01</leafValues></_>
        <_>
          <internalNodes>
            0 -1 234 7.8622775617986917e-04</internalNodes>
          <leafValues>
            -1.6080570220947266e-01 1.2441783398389816e-01</leafValues></_>
        <_>
          <internalNodes>
            0 -1 118 8.5867464542388916e-02</internalNodes>
          <leafValues>
            2.0777080208063126e-02 -8.3390641212463379e-01</leafValues></_>
        <_>
          <internalNodes>
            0 -1 315 2.8596306947292760e-05</internalNodes>
          <leafValues>
            -1.3121022284030914e-01 1.4893142879009247e-01</leafValues></_>
        <_>
          <internalNodes>
            0 -1 77 -3.4278535842895508e-01</internalNodes>
          <leafValues>
            -4.3844375014305115e-01 4.4163610786199570e-02</leafValues></_>
        <_>
          <internalNodes>
            0 -1 378 5.1639154553413391e-03</internalNodes>
          <leafValues>
            8.6428903043270111e-02 -2.2836445271968842e-01</leafValues></_>
        <_>
          <internalNodes>
            0 -1 194 -8.9136103633791208e-04</internalNodes>
          <leafValues>
            1.8011829257011414e-01 -1.1420789361000061e-01</leafValues></_>
        <_>
          <internalNodes>
            0 -1 283 4.9452926759840921e-05</internalNodes>
          <leafValues>
            -1.2688942253589630e-01 1.6249780356884003e-01</leafValues></_>
        <_>
          <internalNodes>
            0 -1 103 -6.4482999732717872e-04</internalNodes>
          <leafValues>
            2.1789097785949707e-01 -8.3679787814617157e-02</leafValues></_>
        <_>
          <internalNodes>
            0 -1 367 -1.4992080628871918e-02</internalNodes>
          <leafValues>
            -7.0891022682189941e-01 2.5507975369691849e-02</leafValues></_>
        <_>
          <internalNodes>
            0 -1 437 4.6793141518719494e-04</internalNodes>
          <leafValues>
            8.2762777805328369e-02 -2.2172576189041138e-01</leafValues></_>
        <_>
          <internalNodes>
            0 -1 307 -6.1289802193641663e-02</internalNodes>
          <leafValues>
            7.9544955492019653e-01 -2.6869855821132660e-02</leafValues></_>
        <_>
          <internalNodes>
            0 -1 49 -8.7974712252616882e-02</internalNodes>
          <leafValues>
            -7.6455014944076538e-01 2.9410663992166519e-02</leafValues></_>
        <_>
          <internalNodes>
            0 -1 440 4.4335648417472839e-03</internalNodes>
          <leafValues>
            6.0817740857601166e-02 -3.0185279250144958e-01</leafValues></_>
        <_>
          <internalNodes>
            0 -1 111 -6.3504219055175781e-02</internalNodes>
          <leafValues>
            -7.7017152309417725e-01 2.3937636986374855e-02</leafValues></_>
        <_>
          <internalNodes>
            0 -1 120 -7.3549792170524597e-02</internalNodes>
          <leafValues>
            -5.5903041362762451e-01 2.9710568487644196e-02</leafValues></_>
        <_>
          <internalNodes>
            0 -1 51 -4.4396035373210907e-03</internalNodes>
          <leafValues>
            2.3651380836963654e-01 -8.4679841995239258e-02</leafValues></_>
        <_>
          <internalNodes>
            0 -1 333 7.5682904571294785e-03</internalNodes>
          <leafValues>
            -4.0440794080495834e-02 4.7666317224502563e-01</leafValues></_>
        <_>
          <internalNodes>
            0 -1 376 -1.8705299589782953e-03</internalNodes>
          <leafValues>
            -2.1409510076045990e-01 9.8087310791015625e-02</leafValues></_>
        <_>
          <internalNodes>
            0 -1 64 -6.4192963764071465e-03</internalNodes>
          <leafValues>
            1.3512369990348816e-01 -1.3288815319538116e-01</leafValues></_>
        <_>
          <internalNodes>
            0 -1 52 -2.9491884561139159e-05</internalNodes>
          <leafValues>
            1.3666458427906036e-01 -1.2947115302085876e-01</leafValues></_>
        <_>
          <internalNodes>
            0 -1 6 -2.2486138343811035e-01</internalNodes>
          <leafValues>
            -3.3356878161430359e-01 5.3940441459417343e-02</leafValues></_>
        <_>
          <internalNodes>
            0 -1 429 -9.0517811477184296e-03</internalNodes>
          <leafValues>
            2.8952395915985107e-01 -6.6770136356353760e-02</leafValues></_>
        <_>
          <internalNodes>
            0 -1 313 1.5240469947457314e-02</internalNodes>
          <leafValues>
            6.9145292043685913e-02 -3.3620876073837280e-01</leafValues></_>
        <_>
          <internalNodes>
            0 -1 121 1.1025202460587025e-02</internalNodes>
          <leafValues>
            -1.3444547355175018e-01 1.9611847400665283e-01</leafValues></_>
        <_>
          <internalNodes>
            0 -1 7 -3.4915405511856079e-01</internalNodes>
          <leafValues>
            2.3816698789596558e-01 -1.1960234493017197e-01</leafValues></_>
        <_>
          <internalNodes>
            0 -1 263 -1.9575734436511993e-01</internalNodes>
          <leafValues>
            -6.5773642063140869e-01 3.3415786921977997e-02</leafValues></_>
        <_>
          <internalNodes>
            0 -1 461 7.2956029325723648e-03</internalNodes>
          <leafValues>
            -1.0113595426082611e-01 2.1812607347965240e-01</leafValues></_>
        <_>
          <internalNodes>
            0 -1 486 -1.6445463988929987e-03</internalNodes>
          <leafValues>
            2.4498820304870605e-01 -9.3150757253170013e-02</leafValues></_>
        <_>
          <internalNodes>
            0 -1 68 6.4518332481384277e-02</internalNodes>
          <leafValues>
            -2.8541924431920052e-02 6.5910297632217407e-01</leafValues></_>
        <_>
          <internalNodes>
            0 -1 498 -5.4584885947406292e-04</internalNodes>
          <leafValues>
            -4.7889542579650879e-01 4.3367572128772736e-02</leafValues></_>
        <_>
          <internalNodes>
            0 -1 456 2.6369150727987289e-03</internalNodes>
          <leafValues>
            -9.5511376857757568e-02 2.1720083057880402e-01</leafValues></_>
        <_>
          <internalNodes>
            0 -1 432 -6.4849955961108208e-03</internalNodes>
          <leafValues>
            -5.6102710962295532e-01 3.3809822052717209e-02</leafValues></_>
        <_>
          <internalNodes>
            0 -1 48 5.8321974938735366e-04</internalNodes>
          <leafValues>
            4.7303535044193268e-02 -3.4785452485084534e-01</leafValues></_>
        <_>
          <internalNodes>
            0 -1 457 -4.5313594455365092e-05</internalNodes>
          <leafValues>
            1.3619381189346313e-01 -1.2643873691558838e-01</leafValues></_></weakClassifiers></_>
    <!-- stage 6 -->
    <_>
      <maxWeakCount>74</maxWeakCount>
      <stageThreshold>-1.3467377424240112e+00</stageThreshold>
      <weakClassifiers>
        <_>
          <internalNodes>
            0 -1 24 5.2983307838439941e-01</internalNodes>
          <leafValues>
            -7.5230205059051514e-01 1.</leafValues></_>
        <_>
          <internalNodes>
            0 -1 21 -1.6376182436943054e-01</internalNodes>
          <leafValues>
            1.4071613550186157e-01 -3.1886047124862671e-01</leafValues></_>
        <_>
          <internalNodes>
            0 -1 338 -5.7995691895484924e-03</internalNodes>
          <leafValues>
            -3.3211311697959900e-01 8.6499407887458801e-02</leafValues></_>
        <_>
          <internalNodes>
            0 -1 265 1.8885679543018341e-02</internalNodes>
          <leafValues>
            5.7485554367303848e-02 -3.7535852193832397e-01</leafValues></_>
        <_>
          <internalNodes>
            0 -1 261 3.5849988460540771e-02</internalNodes>
          <leafValues>
            7.2980178520083427e-03 7.6864522695541382e-01</leafValues></_>
        <_>
          <internalNodes>
            0 -1 453 3.3618062734603882e-02</internalNodes>
          <leafValues>
            5.6821033358573914e-03 -9.1320365667343140e-01</leafValues></_>
        <_>
          <internalNodes>
            0 -1 210 -1.3662660421687178e-05</internalNodes>
          <leafValues>
            1.6170729696750641e-01 -1.4387127757072449e-01</leafValues></_>
        <_>
          <internalNodes>
            0 -1 463 1.6737129539251328e-02</internalNodes>
          <leafValues>
            -5.4207328706979752e-02 5.0499188899993896e-01</leafValues></_>
        <_>
          <internalNodes>
            0 -1 448 2.2454468999058008e-03</internalNodes>
          <leafValues>
            -8.6488008499145508e-02 2.5377625226974487e-01</leafValues></_>
        <_>
          <internalNodes>
            0 -1 465 -5.0141295650973916e-04</internalNodes>
          <leafValues>
            -4.9156042933464050e-01 6.7888140678405762e-02</leafValues></_>
        <_>
          <internalNodes>
            0 -1 47 -9.0425685048103333e-02</internalNodes>
          <leafValues>
            1.5136361122131348e-01 -1.5019127726554871e-01</leafValues></_>
        <_>
          <internalNodes>
            0 -1 260 -9.4740930944681168e-03</internalNodes>
          <leafValues>
            4.3556383252143860e-01 -5.0625249743461609e-02</leafValues></_>
        <_>
          <internalNodes>
            0 -1 94 -2.8788829222321510e-02</internalNodes>
          <leafValues>
            -4.9730139970779419e-01 5.3331393748521805e-02</leafValues></_>
        <_>
          <internalNodes>
            0 -1 383 -2.0803117658942938e-03</internalNodes>
          <leafValues>
            2.8076225519180298e-01 -9.3817226588726044e-02</leafValues></_>
        <_>
          <internalNodes>
            0 -1 341 2.6700861053541303e-04</internalNodes>
          <leafValues>
            -2.0063135027885437e-01 1.1510205268859863e-01</leafValues></_>
        <_>
          <internalNodes>
            0 -1 316 -8.7897516787052155e-03</internalNodes>
          <leafValues>
            1.7815880477428436e-01 -1.3543988764286041e-01</leafValues></_>
        <_>
          <internalNodes>
            0 -1 148 3.4854176919907331e-04</internalNodes>
          <leafValues>
            1.0289749503135681e-01 -2.3939180374145508e-01</leafValues></_>
        <_>
          <internalNodes>
            0 -1 286 1.2914946302771568e-02</internalNodes>
          <leafValues>
            6.5710112452507019e-02 -3.5246849060058594e-01</leafValues></_>
        <_>
          <internalNodes>
            0 -1 454 -9.1257318854331970e-03</internalNodes>
          <leafValues>
            3.5207298398017883e-01 -6.0737058520317078e-02</leafValues></_>
        <_>
          <internalNodes>
            0 -1 482 -1.2164525687694550e-03</internalNodes>
          <leafValues>
            -2.3735274374485016e-01 9.8076462745666504e-02</leafValues></_>
        <_>
          <internalNodes>
            0 -1 95 2.1906778216362000e-01</internalNodes>
          <leafValues>
            -2.7816895395517349e-02 8.2285809516906738e-01</leafValues></_>
        <_>
          <internalNodes>
            0 -1 368 5.6979460641741753e-03</internalNodes>
          <leafValues>
            3.9401262998580933e-02 -6.5064406394958496e-01</leafValues></_>
        <_>
          <internalNodes>
            0 -1 254 6.4282575622200966e-03</internalNodes>
          <leafValues>
            -7.5009495019912720e-02 3.1821048259735107e-01</leafValues></_>
        <_>
          <internalNodes>
            0 -1 237 -1.4692219905555248e-02</internalNodes>
          <leafValues>
            2.1733221411705017e-01 -9.7457841038703918e-02</leafValues></_>
        <_>
          <internalNodes>
            0 -1 171 -2.9639184474945068e-02</internalNodes>
          <leafValues>
            -6.7791622877120972e-01 3.5528868436813354e-02</leafValues></_>
        <_>
          <internalNodes>
            0 -1 404 -3.6250221455702558e-05</internalNodes>
          <leafValues>
            1.1652691662311554e-01 -1.7102597653865814e-01</leafValues></_>
        <_>
          <internalNodes>
            0 -1 329 -6.5926101524382830e-04</internalNodes>
          <leafValues>
            1.3724850118160248e-01 -1.5940003097057343e-01</leafValues></_>
        <_>
          <internalNodes>
            0 -1 419 -6.9598358822986484e-04</internalNodes>
          <leafValues>
            -1.3423137366771698e-01 1.8285448849201202e-01</leafValues></_>
        <_>
          <internalNodes>
            0 -1 403 -3.5539828240871429e-04</internalNodes>
          <leafValues>
            1.5120999515056610e-01 -1.5975728631019592e-01</leafValues></_>
        <_>
          <internalNodes>
            0 -1 340 -6.9983140565454960e-04</internalNodes>
          <leafValues>
            -2.5924646854400635e-01 9.0784214437007904e-02</leafValues></_>
        <_>
          <internalNodes>
            0 -1 471 3.3553112298250198e-02</internalNodes>
          <leafValues>
            3.3791676163673401e-02 -6.6157424449920654e-01</leafValues></_>
        <_>
          <internalNodes>
            0 -1 165 4.0332513162866235e-04</internalNodes>
          <leafValues>
            -8.6017884314060211e-02 2.6673173904418945e-01</leafValues></_>
        <_>
          <internalNodes>
            0 -1 122 1.3224735994299408e-05</internalNodes>
          <leafValues>
            -1.2990725040435791e-01 1.6396261751651764e-01</leafValues></_>
        <_>
          <internalNodes>
            0 -1 386 -2.0670136436820030e-03</internalNodes>
          <leafValues>
            3.2421162724494934e-01 -6.9823242723941803e-02</leafValues></_>
        <_>
          <internalNodes>
            0 -1 385 6.7044398747384548e-04</internalNodes>
          <leafValues>
            -1.4317455887794495e-01 1.6897043585777283e-01</leafValues></_>
        <_>
          <internalNodes>
            0 -1 391 -2.3140681441873312e-03</internalNodes>
          <leafValues>
            -4.8990520834922791e-01 4.5596711337566376e-02</leafValues></_>
        <_>
          <internalNodes>
            0 -1 354 1.2279322836548090e-03</internalNodes>
          <leafValues>
            6.5912932157516479e-02 -3.0486890673637390e-01</leafValues></_>
        <_>
          <internalNodes>
            0 -1 271 -1.3485062867403030e-02</internalNodes>
          <leafValues>
            -3.7831529974937439e-01 5.7144284248352051e-02</leafValues></_>
        <_>
          <internalNodes>
            0 -1 243 4.2196184396743774e-02</internalNodes>
          <leafValues>
            -3.3522050827741623e-02 8.9069032669067383e-01</leafValues></_>
        <_>
          <internalNodes>
            0 -1 462 1.1919089592993259e-03</internalNodes>
          <leafValues>
            -5.0752874463796616e-02 3.9759293198585510e-01</leafValues></_>
        <_>
          <internalNodes>
            0 -1 487 3.6729779094457626e-04</internalNodes>
          <leafValues>
            -6.9986738264560699e-02 2.8740936517715454e-01</leafValues></_>
        <_>
          <internalNodes>
            0 -1 477 -1.3224735994299408e-05</internalNodes>
          <leafValues>
            1.5585535764694214e-01 -1.4689774811267853e-01</leafValues></_>
        <_>
          <internalNodes>
            0 -1 147 -5.6886836886405945e-02</internalNodes>
          <leafValues>
            -6.9446909427642822e-01 2.8748914599418640e-02</leafValues></_>
        <_>
          <internalNodes>
            0 -1 278 -2.3218389600515366e-02</internalNodes>
          <leafValues>
            -9.0863126516342163e-01 1.7990389838814735e-02</leafValues></_>
        <_>
          <internalNodes>
            0 -1 57 3.3046730095520616e-04</internalNodes>
          <leafValues>
            6.4358361065387726e-02 -2.9486116766929626e-01</leafValues></_>
        <_>
          <internalNodes>
            0 -1 43 1.5109212836250663e-04</internalNodes>
          <leafValues>
            -9.2616938054561615e-02 2.2929690778255463e-01</leafValues></_>
        <_>
          <internalNodes>
            0 -1 8 -7.7458430314436555e-04</internalNodes>
          <leafValues>
            -4.9660441279411316e-01 4.5238148421049118e-02</leafValues></_>
        <_>
          <internalNodes>
            0 -1 272 -2.7111885719932616e-04</internalNodes>
          <leafValues>
            -1.7764952778816223e-01 1.2444477528333664e-01</leafValues></_>
        <_>
          <internalNodes>
            0 -1 388 -1.2534907727967948e-04</internalNodes>
          <leafValues>
            1.3555312156677246e-01 -1.7118215560913086e-01</leafValues></_>
        <_>
          <internalNodes>
            0 -1 349 -5.3715782996732742e-05</internalNodes>
          <leafValues>
            1.4623677730560303e-01 -1.6618980467319489e-01</leafValues></_>
        <_>
          <internalNodes>
            0 -1 358 2.9537759255617857e-03</internalNodes>
          <leafValues>
            -1.1174681037664413e-01 2.2326447069644928e-01</leafValues></_>
        <_>
          <internalNodes>
            0 -1 416 2.0848114043474197e-02</internalNodes>
          <leafValues>
            -1.0316889733076096e-01 2.4480901658535004e-01</leafValues></_>
        <_>
          <internalNodes>
            0 -1 93 -4.5013010501861572e-02</internalNodes>
          <leafValues>
            2.4962845444679260e-01 -1.0704878717660904e-01</leafValues></_>
        <_>
          <internalNodes>
            0 -1 488 -9.0023130178451538e-03</internalNodes>
          <leafValues>
            -8.4953570365905762e-01 2.3610185831785202e-02</leafValues></_>
        <_>
          <internalNodes>
            0 -1 126 -3.2850116491317749e-02</internalNodes>
          <leafValues>
            -7.7685695886611938e-01 1.9677450880408287e-02</leafValues></_>
        <_>
          <internalNodes>
            0 -1 484 -5.6979106739163399e-04</internalNodes>
          <leafValues>
            -2.3733410239219666e-01 9.0051770210266113e-02</leafValues></_>
        <_>
          <internalNodes>
            0 -1 405 -3.3322017639875412e-02</internalNodes>
          <leafValues>
            -5.3352844715118408e-01 3.8779962807893753e-02</leafValues></_>
        <_>
          <internalNodes>
            0 -1 98 -1.4303135685622692e-03</internalNodes>
          <leafValues>
            2.4260644614696503e-01 -9.7571589052677155e-02</leafValues></_>
        <_>
          <internalNodes>
            0 -1 107 4.5554868876934052e-02</internalNodes>
          <leafValues>
            2.7982084080576897e-02 -7.6552534103393555e-01</leafValues></_>
        <_>
          <internalNodes>
            0 -1 136 -1.1353351874276996e-03</internalNodes>
          <leafValues>
            2.6168337464332581e-01 -8.5328325629234314e-02</leafValues></_>
        <_>
          <internalNodes>
            0 -1 138 4.5588733628392220e-03</internalNodes>
          <leafValues>
            -6.8101949989795685e-02 3.2868105173110962e-01</leafValues></_>
        <_>
          <internalNodes>
            0 -1 116 -9.3239583075046539e-03</internalNodes>
          <leafValues>
            -5.9954929351806641e-01 3.6987818777561188e-02</leafValues></_>
        <_>
          <internalNodes>
            0 -1 414 6.6275442950427532e-03</internalNodes>
          <leafValues>
            -7.6619289815425873e-02 3.0041393637657166e-01</leafValues></_>
        <_>
          <internalNodes>
            0 -1 185 -9.2485018074512482e-02</internalNodes>
          <leafValues>
            4.9560770392417908e-01 -4.0541209280490875e-02</leafValues></_>
        <_>
          <internalNodes>
            0 -1 236 -9.1338399797677994e-03</internalNodes>
          <leafValues>
            -1.9936949014663696e-01 1.1313328891992569e-01</leafValues></_>
        <_>
          <internalNodes>
            0 -1 473 -7.9262427985668182e-02</internalNodes>
          <leafValues>
            4.8434108495712280e-01 -4.6027511358261108e-02</leafValues></_>
        <_>
          <internalNodes>
            0 -1 23 7.5002186000347137e-02</internalNodes>
          <leafValues>
            -3.2167110592126846e-02 5.9275382757186890e-01</leafValues></_>
        <_>
          <internalNodes>
            0 -1 59 1.3084186241030693e-02</internalNodes>
          <leafValues>
            -7.2843030095100403e-02 3.0902123451232910e-01</leafValues></_>
        <_>
          <internalNodes>
            0 -1 119 -8.3540957421064377e-03</internalNodes>
          <leafValues>
            -4.4891962409019470e-01 4.9872137606143951e-02</leafValues></_>
        <_>
          <internalNodes>
            0 -1 364 1.6958398744463921e-02</internalNodes>
          <leafValues>
            3.9868995547294617e-02 -4.6623173356056213e-01</leafValues></_>
        <_>
          <internalNodes>
            0 -1 411 4.4119464291725308e-05</internalNodes>
          <leafValues>
            -1.4970943331718445e-01 1.4370395243167877e-01</leafValues></_>
        <_>
          <internalNodes>
            0 -1 478 1.8605780787765980e-03</internalNodes>
          <leafValues>
            2.7779592201113701e-02 -7.0775133371353149e-01</leafValues></_>
        <_>
          <internalNodes>
            0 -1 36 -1.1519271538418252e-05</internalNodes>
          <leafValues>
            1.3693557679653168e-01 -1.4674867689609528e-01</leafValues></_>
        <_>
          <internalNodes>
            0 -1 268 1.2812793720513582e-03</internalNodes>
          <leafValues>
            -7.9999759793281555e-02 3.0665847659111023e-01</leafValues></_></weakClassifiers></_>
    <!-- stage 7 -->
    <_>
      <maxWeakCount>47</maxWeakCount>
      <stageThreshold>-1.4151101112365723e+00</stageThreshold>
      <weakClassifiers>
        <_>
          <internalNodes>
            0 -1 92 2.6591104269027710e-01</internalNodes>
          <leafValues>
            -7.6040703058242798e-01 1.</leafValues></_>
        <_>
          <internalNodes>
            0 -1 80 -2.0546223223209381e-01</internalNodes>
          <leafValues>
            -7.5921299867331982e-03 -4.4064992666244507e-01</leafValues></_>
        <_>
          <internalNodes>
            0 -1 201 -3.7770456401631236e-04</internalNodes>
          <leafValues>
            1.9592154026031494e-01 -1.9115215539932251e-01</leafValues></_>
        <_>
          <internalNodes>
            0 -1 199 -1.0719196870923042e-03</internalNodes>
          <leafValues>
            2.0583820343017578e-01 -1.9431683421134949e-01</leafValues></_>
        <_>
          <internalNodes>
            0 -1 323 1.1514883954077959e-03</internalNodes>
          <leafValues>
            5.5687431246042252e-02 -6.8232578039169312e-01</leafValues></_>
        <_>
          <internalNodes>
            0 -1 200 -1.1493265628814697e-03</internalNodes>
          <leafValues>
            3.1865498423576355e-01 -1.0601116716861725e-01</leafValues></_>
        <_>
          <internalNodes>
            0 -1 155 -1.9796597771346569e-03</internalNodes>
          <leafValues>
            4.0048390626907349e-01 -8.1725247204303741e-02</leafValues></_>
        <_>
          <internalNodes>
            0 -1 406 -6.3393646851181984e-03</internalNodes>
          <leafValues>
            9.4488596916198730e-01 -5.2746310830116272e-02</leafValues></_>
        <_>
          <internalNodes>
            0 -1 140 1.4194196410244331e-05</internalNodes>
          <leafValues>
            -1.6895528137683868e-01 2.4321016669273376e-01</leafValues></_>
        <_>
          <internalNodes>
            0 -1 174 1.1375942267477512e-03</internalNodes>
          <leafValues>
            -9.4493411481380463e-02 4.7721582651138306e-01</leafValues></_>
        <_>
          <internalNodes>
            0 -1 67 -9.3855084851384163e-03</internalNodes>
          <leafValues>
            -7.5373512506484985e-01 6.6767700016498566e-02</leafValues></_>
        <_>
          <internalNodes>
            0 -1 330 2.4061189033091068e-03</internalNodes>
          <leafValues>
            -1.5097354352474213e-01 2.5267884135246277e-01</leafValues></_>
        <_>
          <internalNodes>
            0 -1 189 2.2809276357293129e-02</internalNodes>
          <leafValues>
            1.2467152625322342e-01 -3.6623522639274597e-01</leafValues></_>
        <_>
          <internalNodes>
            0 -1 124 -5.2672333549708128e-04</internalNodes>
          <leafValues>
            2.2349074482917786e-01 -1.6763441264629364e-01</leafValues></_>
        <_>
          <internalNodes>
            0 -1 397 -1.8575727008283138e-03</internalNodes>
          <leafValues>
            -6.2181997299194336e-01 6.7514769732952118e-02</leafValues></_>
        <_>
          <internalNodes>
            0 -1 130 -1.6527492552995682e-03</internalNodes>
          <leafValues>
            6.7724949121475220e-01 -7.7818013727664948e-02</leafValues></_>
        <_>
          <internalNodes>
            0 -1 247 5.5990211665630341e-02</internalNodes>
          <leafValues>
            -7.6634712517261505e-02 4.6729946136474609e-01</leafValues></_>
        <_>
          <internalNodes>
            0 -1 402 -6.5635744249448180e-04</internalNodes>
          <leafValues>
            2.8092959523200989e-01 -1.5261963009834290e-01</leafValues></_>
        <_>
          <internalNodes>
            0 -1 83 1.0711788199841976e-03</internalNodes>
          <leafValues>
            1.4142641425132751e-01 -3.3923342823982239e-01</leafValues></_>
        <_>
          <internalNodes>
            0 -1 322 2.1614208817481995e-03</internalNodes>
          <leafValues>
            4.5293085277080536e-02 -7.8738737106323242e-01</leafValues></_>
        <_>
          <internalNodes>
            0 -1 15 -6.1147320084273815e-03</internalNodes>
          <leafValues>
            4.9633899331092834e-01 -9.1785177588462830e-02</leafValues></_>
        <_>
          <internalNodes>
            0 -1 56 -7.0055900141596794e-04</internalNodes>
          <leafValues>
            -2.2434894740581512e-01 1.9827610254287720e-01</leafValues></_>
        <_>
          <internalNodes>
            0 -1 235 -9.6836816519498825e-03</internalNodes>
          <leafValues>
            -5.5398464202880859e-01 7.1172885596752167e-02</leafValues></_>
        <_>
          <internalNodes>
            0 -1 267 6.8730214843526483e-04</internalNodes>
          <leafValues>
            -1.0452702641487122e-01 4.8694625496864319e-01</leafValues></_>
        <_>
          <internalNodes>
            0 -1 460 -1.9347390625625849e-03</internalNodes>
          <leafValues>
            3.0990988016128540e-01 -1.3553990423679352e-01</leafValues></_>
        <_>
          <internalNodes>
            0 -1 351 -1.1566690955078229e-04</internalNodes>
          <leafValues>
            -3.7381422519683838e-01 1.2697340548038483e-01</leafValues></_>
        <_>
          <internalNodes>
            0 -1 10 2.7514815330505371e-02</internalNodes>
          <leafValues>
            -9.2420764267444611e-02 4.8781329393386841e-01</leafValues></_>
        <_>
          <internalNodes>
            0 -1 0 7.2336802259087563e-04</internalNodes>
          <leafValues>
            8.8956914842128754e-02 -5.9423726797103882e-01</leafValues></_>
        <_>
          <internalNodes>
            0 -1 55 -1.0687245521694422e-03</internalNodes>
          <leafValues>
            6.0094374418258667e-01 -8.2848101854324341e-02</leafValues></_>
        <_>
          <internalNodes>
            0 -1 264 -8.8966917246580124e-03</internalNodes>
          <leafValues>
            -5.9249955415725708e-01 6.9446839392185211e-02</leafValues></_>
        <_>
          <internalNodes>
            0 -1 389 1.2826996389776468e-03</internalNodes>
          <leafValues>
            -8.6956739425659180e-02 5.6496286392211914e-01</leafValues></_>
        <_>
          <internalNodes>
            0 -1 46 -3.3255637390539050e-04</internalNodes>
          <leafValues>
            -2.7035495638847351e-01 1.4393702149391174e-01</leafValues></_>
        <_>
          <internalNodes>
            0 -1 231 1.1628686916083097e-03</internalNodes>
          <leafValues>
            -1.2543766200542450e-01 3.8460591435432434e-01</leafValues></_>
        <_>
          <internalNodes>
            0 -1 345 -4.8622470349073410e-03</internalNodes>
          <leafValues>
            -6.2704783678054810e-01 6.2483653426170349e-02</leafValues></_>
        <_>
          <internalNodes>
            0 -1 410 2.2987000644207001e-02</internalNodes>
          <leafValues>
            -6.9472499191761017e-02 7.1527814865112305e-01</leafValues></_>
        <_>
          <internalNodes>
            0 -1 436 9.4450268079526722e-05</internalNodes>
          <leafValues>
            1.8086296319961548e-01 -2.2843632102012634e-01</leafValues></_>
        <_>
          <internalNodes>
            0 -1 298 3.2208800315856934e-02</internalNodes>
          <leafValues>
            -1.0842067748308182e-01 4.3629363179206848e-01</leafValues></_>
        <_>
          <internalNodes>
            0 -1 133 -5.8916816487908363e-03</internalNodes>
          <leafValues>
            -1.9445279240608215e-01 2.4976640939712524e-01</leafValues></_>
        <_>
          <internalNodes>
            0 -1 472 -1.4794254675507545e-02</internalNodes>
          <leafValues>
            3.2969692349433899e-01 -1.5791817009449005e-01</leafValues></_>
        <_>
          <internalNodes>
            0 -1 344 -8.0346688628196716e-03</internalNodes>
          <leafValues>
            -7.0988768339157104e-01 6.1927910894155502e-02</leafValues></_>
        <_>
          <internalNodes>
            0 -1 176 2.1675054449588060e-04</internalNodes>
          <leafValues>
            1.5671034157276154e-01 -3.0390006303787231e-01</leafValues></_>
        <_>
          <internalNodes>
            0 -1 106 6.9027917925268412e-04</internalNodes>
          <leafValues>
            -6.3146062195301056e-02 7.4173563718795776e-01</leafValues></_>
        <_>
          <internalNodes>
            0 -1 467 3.2800959888845682e-04</internalNodes>
          <leafValues>
            1.5371315181255341e-01 -3.1356173753738403e-01</leafValues></_>
        <_>
          <internalNodes>
            0 -1 284 2.2700852714478970e-03</internalNodes>
          <leafValues>
            -1.3625231385231018e-01 3.3724859356880188e-01</leafValues></_>
        <_>
          <internalNodes>
            0 -1 291 -8.1361345946788788e-03</internalNodes>
          <leafValues>
            -4.3933957815170288e-01 1.0126349329948425e-01</leafValues></_>
        <_>
          <internalNodes>
            0 -1 427 -1.6007423400878906e-03</internalNodes>
          <leafValues>
